{"learner":{"attributes":{"scikit_learn":"{\"_estimator_type\": \"regressor\"}"},"feature_names":["Temperature","Irradiance","Location_Australia","Location_USA"],"feature_types":["float","float","int","int"],"gradient_booster":{"model":{"cats":{"enc":[],"feature_segments":[],"sorted_idx":[]},"gbtree_model_param":{"num_parallel_tree":"1","num_trees":"263"},"iteration_indptr":[0,1,2,3,4,5,6,7,8,9,10,11,12,13,14,15,16,17,18,19,20,21,22,23,24,25,26,27,28,29,30,31,32,33,34,35,36,37,38,39,40,41,42,43,44,45,46,47,48,49,50,51,52,53,54,55,56,57,58,59,60,61,62,63,64,65,66,67,68,69,70,71,72,73,74,75,76,77,78,79,80,81,82,83,84,85,86,87,88,89,90,91,92,93,94,95,96,97,98,99,100,101,102,103,104,105,106,107,108,109,110,111,112,113,114,115,116,117,118,119,120,121,122,123,124,125,126,127,128,129,130,131,132,133,134,135,136,137,138,139,140,141,142,143,144,145,146,147,148,149,150,151,152,153,154,155,156,157,158,159,160,161,162,163,164,165,166,167,168,169,170,171,172,173,174,175,176,177,178,179,180,181,182,183,184,185,186,187,188,189,190,191,192,193,194,195,196,197,198,199,200,201,202,203,204,205,206,207,208,209,210,211,212,213,214,215,216,217,218,219,220,221,222,223,224,225,226,227,228,229,230,231,232,233,234,235,236,237,238,239,240,241,242,243,244,245,246,247,248,249,250,251,252,253,254,255,256,257,258,259,260,261,262,263],"tree_info":[0,0,0,0,0,0,0,0,0,0,0,0,0,0,0,0,0,0,0,0,0,0,0,0,0,0,0,0,0,0,0,0,0,0,0,0,0,0,0,0,0,0,0,0,0,0,0,0,0,0,0,0,0,0,0,0,0,0,0,0,0,0,0,0,0,0,0,0,0,0,0,0,0,0,0,0,0,0,0,0,0,0,0,0,0,0,0,0,0,0,0,0,0,0,0,0,0,0,0,0,0,0,0,0,0,0,0,0,0,0,0,0,0,0,0,0,0,0,0,0,0,0,0,0,0,0,0,0,0,0,0,0,0,0,0,0,0,0,0,0,0,0,0,0,0,0,0,0,0,0,0,0,0,0,0,0,0,0,0,0,0,0,0,0,0,0,0,0,0,0,0,0,0,0,0,0,0,0,0,0,0,0,0,0,0,0,0,0,0,0,0,0,0,0,0,0,0,0,0,0,0,0,0,0,0,0,0,0,0,0,0,0,0,0,0,0,0,0,0,0,0,0,0,0,0,0,0,0,0,0,0,0,0,0,0,0,0,0,0,0,0,0,0,0,0,0,0,0,0,0,0,0,0,0,0,0,0,0,0,0,0,0,0],"trees":[{"base_weights":[-2.1986885E-3,-1.1983016E0,3.7063583E1,-2.3052824E0,7.519011E0,2.6591085E1,5.5048794E1,-2.514644E0,1.2939318E0,5.2903485E0,1.22314E1,2.266506E1,3.2523914E1,2.3637032E1,6.2848877E1,-1.2813511E-1,-9.793497E-2,3.4102213E-2,9.05408E-2,1.7797256E-1,3.1645188E-1,4.7987896E-1,6.773413E-1,8.6822754E-1,1.5735517E0,1.2885467E0,1.622475E0,4.4993836E-1,1.5134431E0,2.285078E0,3.2647448E0],"categories":[],"categories_nodes":[],"categories_segments":[],"categories_sizes":[],"default_left":[0,0,0,0,0,0,0,0,0,0,0,0,0,0,0,0,0,0,0,0,0,0,0,0,0,0,0,0,0,0,0],"id":0,"left_children":[1,3,5,7,9,11,13,15,17,19,21,23,25,27,29,-1,-1,-1,-1,-1,-1,-1,-1,-1,-1,-1,-1,-1,-1,-1,-1],"loss_changes":[7.3630456E7,1.5525504E7,9.777296E6,1.0757485E6,1.90385E6,7.63582E5,4.679516E6,1.53805E5,3.051036E4,2.8834375E5,2.53912E5,8.00435E5,1.81411E5,5.2785125E5,1.82802E6,0E0,0E0,0E0,0E0,0E0,0E0,0E0,0E0,0E0,0E0,0E0,0E0,0E0,0E0,0E0,0E0],"parents":[2147483647,0,0,1,1,2,2,3,3,4,4,5,5,6,6,7,7,8,8,9,9,10,10,11,11,12,12,13,13,14,14],"right_children":[2,4,6,8,10,12,14,16,18,20,22,24,26,28,30,-1,-1,-1,-1,-1,-1,-1,-1,-1,-1,-1,-1,-1,-1,-1,-1],"split_conditions":[2.0584406E-1,2.5678587E1,2.919234E1,5.061943E-2,2.6227888E1,2.77156E1,1E0,2.5022663E1,5.952694E-2,2.5930933E1,2.6633463E1,4.6168155E2,2.8297348E1,4.6168155E2,5.7589334E-1,-1.2813511E-1,-9.793497E-2,3.4102213E-2,9.05408E-2,1.7797256E-1,3.1645188E-1,4.7987896E-1,6.773413E-1,8.6822754E-1,1.5735517E0,1.2885467E0,1.622475E0,4.4993836E-1,1.5134431E0,2.285078E0,3.2647448E0],"split_indices":[1,0,0,1,0,0,2,0,1,0,0,1,0,1,1,0,0,0,0,0,0,0,0,0,0,0,0,0,0,0,0],"split_type":[0,0,0,0,0,0,0,0,0,0,0,0,0,0,0,0,0,0,0,0,0,0,0,0,0,0,0,0,0,0,0],"sum_hessian":[1.660792E6,1.608875E6,5.1917E4,1.427591E6,1.81284E5,3.2813E4,1.9104E4,1.349115E6,7.8476E4,1.23078E5,5.8206E4,1.9749E4,1.3064E4,3.801E3,1.5303E4,6.43349E5,7.05766E5,4.5521E4,3.2955E4,7.1208E4,5.187E4,3.8597E4,1.9609E4,1.5711E4,4.038E3,6.637E3,6.427E3,1.636E3,2.165E3,7.143E3,8.16E3],"tree_param":{"num_deleted":"0","num_feature":"4","num_nodes":"31","size_leaf_vector":"1"}},{"base_weights":[-4.2671347E-3,-1.144893E0,3.536063E1,-2.199678E0,7.151371E0,2.3248138E1,4.2701466E1,-2.3970373E0,1.2231238E0,4.8416486E0,1.1285639E1,2.0853704E1,1.2505455E0,2.2976768E1,5.3264194E1,7.42691E-1,-1.07629955E-1,3.2480262E-2,8.570424E-2,1.6260941E-1,2.8313965E-1,4.2848706E-1,6.169368E-1,8.389133E-1,1.0234417E0,4.3771538E-1,1.4662726E0,1.9151589E0,3.119893E0],"categories":[],"categories_nodes":[],"categories_segments":[],"categories_sizes":[],"default_left":[0,0,0,0,0,0,0,0,0,0,0,0,0,0,0,0,0,0,0,0,0,0,0,0,0,0,0,0,0],"id":1,"left_children":[1,3,5,7,9,11,13,15,17,19,21,23,-1,25,27,-1,-1,-1,-1,-1,-1,-1,-1,-1,-1,-1,-1,-1,-1],"loss_changes":[6.7013964E7,1.4083494E7,4.614452E6,9.645545E5,1.733453E6,2.22E5,6.732328E6,3.14636E5,2.6849516E4,2.094105E5,2.78123E5,5.51235E4,0E0,1.4623615E6,3.622688E6,0E0,0E0,0E0,0E0,0E0,0E0,0E0,0E0,0E0,0E0,0E0,0E0,0E0,0E0],"parents":[2147483647,0,0,1,1,2,2,3,3,4,4,5,5,6,6,7,7,8,8,9,9,10,10,11,11,13,13,14,14],"right_children":[2,4,6,8,10,12,14,16,18,20,22,24,-1,26,28,-1,-1,-1,-1,-1,-1,-1,-1,-1,-1,-1,-1,-1,-1],"split_conditions":[2.0584406E-1,6.7656435E-2,3.3330688E-1,5.061943E-2,1.1776452E-1,2.7297693E-1,1E0,1E0,5.952694E-2,8.998487E-2,1.5386745E-1,2.3273921E-1,1.2505455E0,4.6168155E2,5.7589334E-1,7.42691E-1,-1.07629955E-1,3.2480262E-2,8.570424E-2,1.6260941E-1,2.8313965E-1,4.2848706E-1,6.169368E-1,8.389133E-1,1.0234417E0,4.3771538E-1,1.4662726E0,1.9151589E0,3.119893E0],"split_indices":[1,1,1,1,1,1,2,2,1,1,1,1,0,1,1,0,0,0,0,0,0,0,0,0,0,0,0,0,0],"split_type":[0,0,0,0,0,0,0,0,0,0,0,0,0,0,0,0,0,0,0,0,0,0,0,0,0,0,0,0,0],"sum_hessian":[1.661304E6,1.609397E6,5.1907E4,1.42786E6,1.81537E5,1.9589E4,3.2318E4,1.350018E6,7.7842E4,1.1647E5,6.5067E4,1.3023E4,6.566E3,1.1272E4,2.1046E4,8.68E2,1.34915E6,4.5433E4,3.2409E4,6.4599E4,5.1871E4,3.8941E4,2.6126E4,6.487E3,6.536E3,4.821E3,6.451E3,1.2937E4,8.109E3],"tree_param":{"num_deleted":"0","num_feature":"4","num_nodes":"29","size_leaf_vector":"1"}},{"base_weights":[-1.2457676E-3,-1.0928624E0,3.3817337E1,-2.1242075E0,6.7064247E0,2.4225277E1,5.0268913E1,-2.3034775E0,9.7588134E-1,4.5378256E0,1.0831488E1,2.0739117E1,2.956871E1,2.137145E1,5.7473473E1,-1.1829703E-1,-8.985258E-2,1.743109E-2,6.9774926E-2,1.5209952E-1,2.7229798E-1,4.2453715E-1,6.206724E-1,7.961101E-1,1.4425346E0,1.1750115E0,1.4700677E0,4.3597516E-1,1.3390926E0,2.0969439E0,2.9812276E0],"categories":[],"categories_nodes":[],"categories_segments":[],"categories_sizes":[],"default_left":[0,0,0,0,0,0,0,0,0,0,0,0,0,0,0,0,0,0,0,0,0,0,0,0,0,0,0,0,0,0,0],"id":2,"left_children":[1,3,5,7,9,11,13,15,17,19,21,23,25,27,29,-1,-1,-1,-1,-1,-1,-1,-1,-1,-1,-1,-1,-1,-1,-1,-1],"loss_changes":[6.128918E7,1.2936621E7,8.190892E6,7.894185E5,1.68024E6,6.10294E5,3.979224E6,1.351705E5,2.665136E4,2.1725525E5,2.631155E5,6.68596E5,1.40306E5,3.8106988E5,1.489704E6,0E0,0E0,0E0,0E0,0E0,0E0,0E0,0E0,0E0,0E0,0E0,0E0,0E0,0E0,0E0,0E0],"parents":[2147483647,0,0,1,1,2,2,3,3,4,4,5,5,6,6,7,7,8,8,9,9,10,10,11,11,12,12,13,13,14,14],"right_children":[2,4,6,8,10,12,14,16,18,20,22,24,26,28,30,-1,-1,-1,-1,-1,-1,-1,-1,-1,-1,-1,-1,-1,-1,-1,-1],"split_conditions":[2.0584406E-1,2.5661066E1,2.919234E1,2.5498692E1,2.6181587E1,2.77156E1,1E0,3.0955815E-4,2.5569248E1,2.5902351E1,2.6633463E1,4.6168155E2,2.8297348E1,4.6168155E2,5.7589334E-1,-1.1829703E-1,-8.985258E-2,1.743109E-2,6.9774926E-2,1.5209952E-1,2.7229798E-1,4.2453715E-1,6.206724E-1,7.961101E-1,1.4425346E0,1.1750115E0,1.4700677E0,4.3597516E-1,1.3390926E0,2.0969439E0,2.9812276E0],"split_indices":[1,0,0,0,0,0,2,1,0,0,0,1,0,1,1,0,0,0,0,0,0,0,0,0,0,0,0,0,0,0,0],"split_type":[0,0,0,0,0,0,0,0,0,0,0,0,0,0,0,0,0,0,0,0,0,0,0,0,0,0,0,0,0,0,0],"sum_hessian":[1.66019E6,1.608278E6,5.1912E4,1.420445E6,1.87833E5,3.2794E4,1.9118E4,1.342795E6,7.765E4,1.23113E5,6.472E4,1.9849E4,1.2945E4,3.816E3,1.5302E4,6.1608E5,7.26715E5,3.8837E4,3.8813E4,7.1269E4,5.1844E4,4.5143E4,1.9577E4,1.5848E4,4.001E3,6.548E3,6.397E3,1.625E3,2.191E3,7.162E3,8.14E3],"tree_param":{"num_deleted":"0","num_feature":"4","num_nodes":"31","size_leaf_vector":"1"}},{"base_weights":[-4.1060937E-3,-9.523058E-1,3.393995E1,-1.8895321E0,6.7424746E0,2.372584E1,4.759806E1,2.0839474E1,-1.9962223E0,4.776284E0,1.0677867E1,1.9147442E1,2.8278372E1,9.1290915E-1,5.4915646E1,9.369497E-1,7.916597E-1,-9.85566E-2,4.9338393E-2,1.6673298E-1,2.8628972E-1,4.1909534E-1,5.921274E-1,7.686515E-1,9.4055986E-1,1.1213387E0,1.4059665E0,2.235908E0,3.2369993E0],"categories":[],"categories_nodes":[],"categories_segments":[],"categories_sizes":[],"default_left":[0,0,0,0,0,0,0,0,0,0,0,0,0,0,0,0,0,0,0,0,0,0,0,0,0,0,0,0,0],"id":3,"left_children":[1,3,5,7,9,11,13,15,17,19,21,23,25,-1,27,-1,-1,-1,-1,-1,-1,-1,-1,-1,-1,-1,-1,-1,-1],"loss_changes":[5.3485624E7,1.1658681E7,6.298796E6,3.4946435E6,1.3581215E6,5.38029E5,3.839216E6,2.44325E3,9.33791E5,1.994365E5,1.952375E5,4.7339E4,1.30674E5,0E0,1.295456E6,0E0,0E0,0E0,0E0,0E0,0E0,0E0,0E0,0E0,0E0,0E0,0E0,0E0,0E0],"parents":[2147483647,0,0,1,1,2,2,3,3,4,4,5,5,6,6,7,7,8,8,9,9,10,10,11,11,12,12,14,14],"right_children":[2,4,6,8,10,12,14,16,18,20,22,24,26,-1,28,-1,-1,-1,-1,-1,-1,-1,-1,-1,-1,-1,-1,-1,-1],"split_conditions":[2.7060392E1,2.5696808E1,2.919234E1,1E0,2.6227888E1,2.77156E1,1E0,2.5004078E1,2.5498692E1,2.596037E1,2.6633463E1,2.732245E1,2.8297348E1,9.1290915E-1,3.2046787E1,9.369497E-1,7.916597E-1,-9.85566E-2,4.9338393E-2,1.6673298E-1,2.8628972E-1,4.1909534E-1,5.921274E-1,7.686515E-1,9.4055986E-1,1.1213387E0,1.4059665E0,2.235908E0,3.2369993E0],"split_indices":[0,0,0,2,0,0,2,0,0,0,0,0,0,0,0,0,0,0,0,0,0,0,0,0,0,0,0,0,0],"split_type":[0,0,0,0,0,0,0,0,0,0,0,0,0,0,0,0,0,0,0,0,0,0,0,0,0,0,0,0,0],"sum_hessian":[1.661778E6,1.61662E6,4.5158E4,1.441095E6,1.75525E5,2.5838E4,1.932E4,6.732E3,1.434363E6,1.17048E5,5.8477E4,1.2885E4,1.2953E4,4.101E3,1.5219E4,6.449E3,2.83E2,1.343396E6,9.0967E4,7.1391E4,4.5657E4,3.8907E4,1.957E4,6.39E3,6.495E3,6.498E3,6.455E3,1.1918E4,3.301E3],"tree_param":{"num_deleted":"0","num_feature":"4","num_nodes":"29","size_leaf_vector":"1"}},{"base_weights":[-2.702305E-3,-9.975281E-1,3.0854256E1,-1.9354874E0,6.0892E0,2.0316586E1,3.721862E1,-2.0889668E0,9.6888E-1,3.9723153E0,9.567446E0,1.8266296E1,1.0897512E0,1.9950676E1,4.6500904E1,6.2863547E-1,-9.377853E-2,1.9057842E-2,6.340314E-2,1.2712716E-1,2.2785291E-1,3.6322418E-1,5.397805E-1,7.325233E-1,8.9943343E-1,3.5495904E-1,1.299032E0,1.6665643E0,2.726829E0],"categories":[],"categories_nodes":[],"categories_segments":[],"categories_sizes":[],"default_left":[0,0,0,0,0,0,0,0,0,0,0,0,0,0,0,0,0,0,0,0,0,0,0,0,0,0,0,0,0],"id":4,"left_children":[1,3,5,7,9,11,13,15,17,19,21,23,-1,25,27,-1,-1,-1,-1,-1,-1,-1,-1,-1,-1,-1,-1,-1,-1],"loss_changes":[5.1028548E7,1.0704409E7,3.481224E6,6.339475E5,1.385908E6,1.63007E5,5.187204E6,2.239645E5,1.7433445E4,1.4870838E5,2.572745E5,4.50875E4,0E0,1.2400155E6,2.811936E6,0E0,0E0,0E0,0E0,0E0,0E0,0E0,0E0,0E0,0E0,0E0,0E0,0E0,0E0],"parents":[2147483647,0,0,1,1,2,2,3,3,4,4,5,5,6,6,7,7,8,8,9,9,10,10,11,11,13,13,14,14],"right_children":[2,4,6,8,10,12,14,16,18,20,22,24,-1,26,28,-1,-1,-1,-1,-1,-1,-1,-1,-1,-1,-1,-1,-1,-1],"split_conditions":[2.0584406E-1,6.5912314E-2,3.3330688E-1,5.061943E-2,1.135342E-1,2.7297693E-1,1E0,1E0,5.6739204E-2,8.4733374E-2,1.5386745E-1,2.3273921E-1,1.0897512E0,4.6168155E2,5.7589334E-1,6.2863547E-1,-9.377853E-2,1.9057842E-2,6.340314E-2,1.2712716E-1,2.2785291E-1,3.6322418E-1,5.397805E-1,7.325233E-1,8.9943343E-1,3.5495904E-1,1.299032E0,1.6665643E0,2.726829E0],"split_indices":[1,1,1,1,1,1,2,2,1,1,1,1,0,1,1,0,0,0,0,0,0,0,0,0,0,0,0,0,0],"split_type":[0,0,0,0,0,0,0,0,0,0,0,0,0,0,0,0,0,0,0,0,0,0,0,0,0,0,0,0,0],"sum_hessian":[1.662312E6,1.610394E6,5.1918E4,1.422165E6,1.88229E5,1.9551E4,3.2367E4,1.350784E6,7.1381E4,1.17015E5,7.1214E4,1.3013E4,6.538E3,1.1317E4,2.105E4,8.56E2,1.349928E6,3.2388E4,3.8993E4,5.855E4,5.8465E4,4.5329E4,2.5885E4,6.509E3,6.504E3,4.889E3,6.428E3,1.2897E4,8.153E3],"tree_param":{"num_deleted":"0","num_feature":"4","num_nodes":"29","size_leaf_vector":"1"}},{"base_weights":[-7.3699857E-4,-9.5042914E-1,2.950306E1,-1.8174601E0,6.1396556E0,2.1102707E1,4.3901676E1,-2.0085876E0,1.0113257E0,4.472881E0,1.0086948E1,1.810018E1,2.567905E1,5.0241943E1,1.8889038E1,-1.0308657E-1,-7.590722E-2,1.7227314E-2,7.227795E-2,1.5618269E-1,2.744722E-1,4.0823752E-1,5.7523257E-1,6.9059163E-1,1.2725309E0,1.0233076E0,1.2735955E0,1.8292077E0,2.6036332E0,3.441157E-1,1.212215E0],"categories":[],"categories_nodes":[],"categories_segments":[],"categories_sizes":[],"default_left":[0,0,0,0,0,0,0,0,0,0,0,0,0,0,0,0,0,0,0,0,0,0,0,0,0,0,0,0,0,0,0],"id":5,"left_children":[1,3,5,7,9,11,13,15,17,19,21,23,25,27,29,-1,-1,-1,-1,-1,-1,-1,-1,-1,-1,-1,-1,-1,-1,-1,-1],"loss_changes":[4.6517708E7,9.887463E6,6.261192E6,7.74852E5,1.1530205E6,4.48839E5,3.024096E6,1.241905E5,3.442628E4,2.01121E5,1.37567E5,5.412705E5,1.00977E5,1.134868E6,3.5575812E5,0E0,0E0,0E0,0E0,0E0,0E0,0E0,0E0,0E0,0E0,0E0,0E0,0E0,0E0,0E0,0E0],"parents":[2147483647,0,0,1,1,2,2,3,3,4,4,5,5,6,6,7,7,8,8,9,9,10,10,11,11,12,12,13,13,14,14],"right_children":[2,4,6,8,10,12,14,16,18,20,22,24,26,28,30,-1,-1,-1,-1,-1,-1,-1,-1,-1,-1,-1,-1,-1,-1,-1,-1],"split_conditions":[2.0584406E-1,2.5696808E1,2.919234E1,2.5498692E1,2.627906E1,2.77156E1,1E0,2.5050545E1,5.8100354E-2,2.5991842E1,2.6740421E1,4.6168155E2,2.8297348E1,5.7589334E-1,4.6168155E2,-1.0308657E-1,-7.590722E-2,1.7227314E-2,7.227795E-2,1.5618269E-1,2.744722E-1,4.0823752E-1,5.7523257E-1,6.9059163E-1,1.2725309E0,1.0233076E0,1.2735955E0,1.8292077E0,2.6036332E0,3.441157E-1,1.212215E0],"split_indices":[1,0,0,0,0,0,3,0,1,0,0,1,0,1,1,0,0,0,0,0,0,0,0,0,0,0,0,0,0,0,0],"split_type":[0,0,0,0,0,0,0,0,0,0,0,0,0,0,0,0,0,0,0,0,0,0,0,0,0,0,0,0,0,0,0],"sum_hessian":[1.660187E6,1.608415E6,5.1772E4,1.433158E6,1.75257E5,3.2698E4,1.9074E4,1.342455E6,9.0703E4,1.23226E5,5.2031E4,1.9747E4,1.2951E4,1.5216E4,3.858E3,6.82713E5,6.59742E5,4.465E4,4.6053E4,7.7773E4,4.5453E4,3.8831E4,1.32E4,1.5745E4,4.002E3,6.547E3,6.404E3,7.06E3,8.156E3,1.638E3,2.22E3],"tree_param":{"num_deleted":"0","num_feature":"4","num_nodes":"31","size_leaf_vector":"1"}},{"base_weights":[3.4914513E-3,-8.299091E-1,2.9637323E1,-1.6128374E0,6.177165E0,2.0626366E1,4.1612698E1,1.8236418E1,-1.7062482E0,4.5496974E0,9.634761E0,1.6810211E1,2.4400541E1,8.0677944E-1,4.7951363E1,8.159105E-1,-2.0992662E-1,-8.5597746E-2,5.3798437E-2,1.653848E-1,2.726107E-1,3.9156312E-1,5.469416E-1,6.720062E-1,8.283577E-1,9.734764E-1,1.2067838E0,1.9432212E0,2.8543272E0],"categories":[],"categories_nodes":[],"categories_segments":[],"categories_sizes":[],"default_left":[0,0,0,0,0,0,0,0,0,0,0,0,0,0,0,0,0,0,0,0,0,0,0,0,0,0,0,0,0],"id":6,"left_children":[1,3,5,7,9,11,13,15,17,19,21,23,25,-1,27,-1,-1,-1,-1,-1,-1,-1,-1,-1,-1,-1,-1,-1,-1],"loss_changes":[4.1028704E7,8.864623E6,4.90288E6,2.694924E6,9.138015E5,3.73099E5,2.91202E6,4.407E3,8.83576E5,1.45298E5,1.177965E5,3.921575E4,8.8301E4,0E0,1.08846E6,0E0,0E0,0E0,0E0,0E0,0E0,0E0,0E0,0E0,0E0,0E0,0E0,0E0,0E0],"parents":[2147483647,0,0,1,1,2,2,3,3,4,4,5,5,6,6,7,7,8,8,9,9,10,10,11,11,12,12,14,14],"right_children":[2,4,6,8,10,12,14,16,18,20,22,24,26,-1,28,-1,-1,-1,-1,-1,-1,-1,-1,-1,-1,-1,-1,-1,-1],"split_conditions":[2.7060392E1,2.5736559E1,2.919234E1,1E0,2.627906E1,2.77156E1,1E0,2.5716038E1,2.5507483E1,2.6024168E1,2.6740421E1,2.732245E1,2.8297348E1,8.0677944E-1,3.2046787E1,8.159105E-1,-2.0992662E-1,-8.5597746E-2,5.3798437E-2,1.653848E-1,2.726107E-1,3.9156312E-1,5.469416E-1,6.720062E-1,8.283577E-1,9.734764E-1,1.2067838E0,1.9432212E0,2.8543272E0],"split_indices":[0,0,0,2,0,0,2,0,0,0,0,0,0,0,0,0,0,0,0,0,0,0,0,0,0,0,0,0,0],"split_type":[0,0,0,0,0,0,0,0,0,0,0,0,0,0,0,0,0,0,0,0,0,0,0,0,0,0,0,0,0],"sum_hessian":[1.661291E6,1.615849E6,4.5442E4,1.45345E6,1.62399E5,2.5932E4,1.951E4,6.807E3,1.446643E6,1.10425E5,5.1974E4,1.2897E4,1.3035E4,4.138E3,1.5372E4,6.799E3,8E0,1.349354E6,9.7289E4,7.1434E4,3.8991E4,3.8982E4,1.2992E4,6.389E3,6.508E3,6.527E3,6.508E3,1.2019E4,3.353E3],"tree_param":{"num_deleted":"0","num_feature":"4","num_nodes":"29","size_leaf_vector":"1"}},{"base_weights":[-1.3778693E-3,-7.9656637E-1,2.8178822E1,-1.5589838E0,5.749548E0,1.9717632E1,3.9560387E1,1.7445747E1,-1.6476713E0,4.2138853E0,9.217662E0,1.6043129E1,2.3328222E1,1.633578E1,4.5827507E1,7.8192186E-1,3.7171382E-1,-8.2126014E-2,4.423121E-2,1.474783E-1,2.5243533E-1,3.607022E-1,4.9671307E-1,6.419303E-1,7.902936E-1,9.335422E-1,1.1527407E0,6.998836E-1,7.391227E-1,1.595293E0,2.3353727E0],"categories":[],"categories_nodes":[],"categories_segments":[],"categories_sizes":[],"default_left":[0,0,0,0,0,0,0,0,0,0,0,0,0,0,0,0,0,0,0,0,0,0,0,0,0,0,0,0,0,0,0],"id":7,"left_children":[1,3,5,7,9,11,13,15,17,19,21,23,25,27,29,-1,-1,-1,-1,-1,-1,-1,-1,-1,-1,-1,-1,-1,-1,-1,-1],"loss_changes":[3.722162E7,8.062558E6,4.389128E6,2.438815E6,8.9749E5,3.46548E5,2.828332E6,3.381375E3,7.2451575E5,1.5314438E5,1.12337E5,3.5488E4,7.8828E4,3.1975E2,9.96864E5,0E0,0E0,0E0,0E0,0E0,0E0,0E0,0E0,0E0,0E0,0E0,0E0,0E0,0E0,0E0,0E0],"parents":[2147483647,0,0,1,1,2,2,3,3,4,4,5,5,6,6,7,7,8,8,9,9,10,10,11,11,12,12,13,13,14,14],"right_children":[2,4,6,8,10,12,14,16,18,20,22,24,26,28,30,-1,-1,-1,-1,-1,-1,-1,-1,-1,-1,-1,-1,-1,-1,-1,-1],"split_conditions":[2.7060392E1,2.5716038E1,2.919234E1,1E0,2.627906E1,2.77156E1,1E0,2.5597E1,2.5498692E1,2.5991842E1,2.6633463E1,2.732245E1,2.8297348E1,3.2046787E1,3.0464207E1,7.8192186E-1,3.7171382E-1,-8.2126014E-2,4.423121E-2,1.474783E-1,2.5243533E-1,3.607022E-1,4.9671307E-1,6.419303E-1,7.902936E-1,9.335422E-1,1.1527407E0,6.998836E-1,7.391227E-1,1.595293E0,2.3353727E0],"split_indices":[0,0,0,2,0,0,2,0,0,0,0,0,0,0,0,0,0,0,0,0,0,0,0,0,0,0,0,0,0,0,0],"split_type":[0,0,0,0,0,0,0,0,0,0,0,0,0,0,0,0,0,0,0,0,0,0,0,0,0,0,0,0,0,0,0],"sum_hessian":[1.661042E6,1.615458E6,4.5584E4,1.446936E6,1.68522E5,2.6148E4,1.9436E4,6.72E3,1.440216E6,1.16804E5,5.1718E4,1.2962E4,1.3186E4,4.131E3,1.5305E4,6.677E3,4.3E1,1.343109E6,9.7107E4,7.1436E4,4.5368E4,3.2299E4,1.9419E4,6.435E3,6.527E3,6.658E3,6.528E3,1.003E3,3.128E3,5.961E3,9.344E3],"tree_param":{"num_deleted":"0","num_feature":"4","num_nodes":"31","size_leaf_vector":"1"}},{"base_weights":[-1.1711528E-3,-8.835311E-1,2.421182E1,-1.6288708E0,4.717019E0,1.5787619E1,3.0954382E1,-1.7466005E0,5.850297E-1,3.0885048E0,7.3774056E0,1.2904723E1,1.8636847E1,1.6389034E1,3.87831E1,4.8527202E-1,-7.839004E-2,-1.8714691E-3,4.2090006E-2,9.653112E-2,1.7944007E-1,2.739488E-1,3.9647165E-1,5.4450804E-1,6.084854E-1,7.5502944E-1,9.107433E-1,2.3290153E-1,1.1112294E0,1.3828276E0,2.284265E0],"categories":[],"categories_nodes":[],"categories_segments":[],"categories_sizes":[],"default_left":[0,0,0,0,0,0,0,0,0,0,0,0,0,0,0,0,0,0,0,0,0,0,0,0,0,0,0,0,0,0,0],"id":8,"left_children":[1,3,5,7,9,11,13,15,17,19,21,23,25,27,29,-1,-1,-1,-1,-1,-1,-1,-1,-1,-1,-1,-1,-1,-1,-1,-1],"loss_changes":[3.5485188E7,6.689498E6,3.316616E6,3.68631E5,8.1544525E5,2.13028E5,3.697976E6,1.380945E5,1.5989865E4,1.00529125E5,1.332055E5,6.453E3,3.93115E4,1.0753702E6,2.038048E6,0E0,0E0,0E0,0E0,0E0,0E0,0E0,0E0,0E0,0E0,0E0,0E0,0E0,0E0,0E0,0E0],"parents":[2147483647,0,0,1,1,2,2,3,3,4,4,5,5,6,6,7,7,8,8,9,9,10,10,11,11,12,12,13,13,14,14],"right_children":[2,4,6,8,10,12,14,16,18,20,22,24,26,28,30,-1,-1,-1,-1,-1,-1,-1,-1,-1,-1,-1,-1,-1,-1,-1,-1],"split_conditions":[1.8741558E-1,6.421786E-2,3.3330688E-1,4.981449E-2,1.0937373E-1,2.3273921E-1,1E0,1E0,5.411625E-2,8.222573E-2,1.3923809E-1,2.0584406E-1,2.7297693E-1,4.6168155E2,5.7589334E-1,4.8527202E-1,-7.839004E-2,-1.8714691E-3,4.2090006E-2,9.653112E-2,1.7944007E-1,2.739488E-1,3.9647165E-1,5.4450804E-1,6.084854E-1,7.5502944E-1,9.107433E-1,2.3290153E-1,1.1112294E0,1.3828276E0,2.284265E0],"split_indices":[1,1,1,1,1,1,2,2,1,1,1,1,1,1,1,0,0,0,0,0,0,0,0,0,0,0,0,0,0,0,0],"split_type":[0,0,0,0,0,0,0,0,0,0,0,0,0,0,0,0,0,0,0,0,0,0,0,0,0,0,0,0,0,0,0],"sum_hessian":[1.660934E6,1.602536E6,5.8398E4,1.414315E6,1.88221E5,2.5963E4,3.2435E4,1.342903E6,7.1412E4,1.16754E5,7.1467E4,1.2908E4,1.3055E4,1.134E4,2.1095E4,8.67E2,1.342036E6,2.5918E4,4.5494E4,5.8397E4,5.8357E4,3.9026E4,3.2441E4,6.464E3,6.444E3,6.56E3,6.495E3,4.895E3,6.445E3,1.2913E4,8.182E3],"tree_param":{"num_deleted":"0","num_feature":"4","num_nodes":"31","size_leaf_vector":"1"}},{"base_weights":[2.3514256E-3,-7.232278E-1,2.587479E1,-1.4058262E0,5.390115E0,1.7957022E1,3.647939E1,1.630259E1,-1.4882877E0,4.0973945E0,8.718759E0,1.4649263E1,2.123093E1,7.1466815E-1,4.198034E1,7.2956616E-1,-2.0696643E-1,-7.465412E-2,4.7154333E-2,1.4406541E-1,2.439821E-1,3.5365346E-1,4.7934663E-1,5.8530873E-1,7.220222E-1,8.4954685E-1,1.0484236E0,1.6935512E0,2.52114E0],"categories":[],"categories_nodes":[],"categories_segments":[],"categories_sizes":[],"default_left":[0,0,0,0,0,0,0,0,0,0,0,0,0,0,0,0,0,0,0,0,0,0,0,0,0,0,0,0,0],"id":9,"left_children":[1,3,5,7,9,11,13,15,17,19,21,23,25,-1,27,-1,-1,-1,-1,-1,-1,-1,-1,-1,-1,-1,-1,-1,-1],"loss_changes":[3.1187208E7,6.7435245E6,3.80463E6,2.1227932E6,6.98407E5,2.806985E5,2.181938E6,4.122625E3,6.729965E5,1.3913238E5,7.3179E4,3.001425E4,6.41565E4,0E0,8.96308E5,0E0,0E0,0E0,0E0,0E0,0E0,0E0,0E0,0E0,0E0,0E0,0E0,0E0,0E0],"parents":[2147483647,0,0,1,1,2,2,3,3,4,4,5,5,6,6,7,7,8,8,9,9,10,10,11,11,12,12,14,14],"right_children":[2,4,6,8,10,12,14,16,18,20,22,24,26,-1,28,-1,-1,-1,-1,-1,-1,-1,-1,-1,-1,-1,-1,-1,-1],"split_conditions":[2.7060392E1,2.5736559E1,2.919234E1,1E0,2.6333925E1,2.77156E1,1E0,2.5716038E1,2.5507483E1,2.6024168E1,2.6740421E1,2.732245E1,2.8297348E1,7.1466815E-1,3.2046787E1,7.2956616E-1,-2.0696643E-1,-7.465412E-2,4.7154333E-2,1.4406541E-1,2.439821E-1,3.5365346E-1,4.7934663E-1,5.8530873E-1,7.220222E-1,8.4954685E-1,1.0484236E0,1.6935512E0,2.52114E0],"split_indices":[0,0,0,2,0,0,2,0,0,0,0,0,0,0,0,0,0,0,0,0,0,0,0,0,0,0,0,0,0],"split_type":[0,0,0,0,0,0,0,0,0,0,0,0,0,0,0,0,0,0,0,0,0,0,0,0,0,0,0,0,0],"sum_hessian":[1.661322E6,1.616003E6,4.5319E4,1.453689E6,1.62314E5,2.5948E4,1.9371E4,6.737E3,1.446952E6,1.16912E5,4.5402E4,1.291E4,1.3038E4,4.102E3,1.5269E4,6.728E3,9E0,1.349926E6,9.7026E4,7.1307E4,4.5605E4,3.246E4,1.2942E4,6.388E3,6.522E3,6.559E3,6.479E3,1.1917E4,3.352E3],"tree_param":{"num_deleted":"0","num_feature":"4","num_nodes":"29","size_leaf_vector":"1"}},{"base_weights":[1.073815E-3,-8.0596536E-1,2.2186335E1,-1.4872575E0,4.30703E0,1.4427177E1,2.8382204E1,-1.5938962E0,5.1961327E-1,2.8237975E0,6.730567E0,1.1807938E1,1.7026358E1,1.5383967E1,3.542046E1,5.1829344E-1,-7.1576394E-2,1.6674097E-3,4.1087985E-2,8.851767E-2,1.6380057E-1,2.5827515E-1,3.7432566E-1,4.9826112E-1,5.573066E-1,6.898793E-1,8.308476E-1,2.0014586E-1,1.051701E0,1.2595385E0,2.0894065E0],"categories":[],"categories_nodes":[],"categories_segments":[],"categories_sizes":[],"default_left":[0,0,0,0,0,0,0,0,0,0,0,0,0,0,0,0,0,0,0,0,0,0,0,0,0,0,0,0,0,0,0],"id":10,"left_children":[1,3,5,7,9,11,13,15,17,19,21,23,25,27,29,-1,-1,-1,-1,-1,-1,-1,-1,-1,-1,-1,-1,-1,-1,-1,-1],"loss_changes":[2.9743356E7,5.5837015E6,2.802828E6,3.02708E5,6.7747525E5,1.760615E5,2.965396E6,1.4775375E5,1.3772697E4,8.3002375E4,1.119165E5,5.493875E3,3.2057E4,1.013098E6,1.723602E6,0E0,0E0,0E0,0E0,0E0,0E0,0E0,0E0,0E0,0E0,0E0,0E0,0E0,0E0,0E0,0E0],"parents":[2147483647,0,0,1,1,2,2,3,3,4,4,5,5,6,6,7,7,8,8,9,9,10,10,11,11,12,12,13,13,14,14],"right_children":[2,4,6,8,10,12,14,16,18,20,22,24,26,28,30,-1,-1,-1,-1,-1,-1,-1,-1,-1,-1,-1,-1,-1,-1,-1,-1],"split_conditions":[1.8741558E-1,6.421786E-2,3.3330688E-1,4.981449E-2,1.0937373E-1,2.3273921E-1,1E0,1E0,5.5414807E-2,8.222573E-2,1.4605753E-1,2.0584406E-1,2.7297693E-1,4.6168155E2,5.7589334E-1,5.1829344E-1,-7.1576394E-2,1.6674097E-3,4.1087985E-2,8.851767E-2,1.6380057E-1,2.5827515E-1,3.7432566E-1,4.9826112E-1,5.573066E-1,6.898793E-1,8.308476E-1,2.0014586E-1,1.051701E0,1.2595385E0,2.0894065E0],"split_indices":[1,1,1,1,1,1,2,2,1,1,1,1,1,1,1,0,0,0,0,0,0,0,0,0,0,0,0,0,0,0,0],"split_type":[0,0,0,0,0,0,0,0,0,0,0,0,0,0,0,0,0,0,0,0,0,0,0,0,0,0,0,0,0,0,0],"sum_hessian":[1.661232E6,1.602923E6,5.8309E4,1.414452E6,1.88471E5,2.589E4,3.2419E4,1.343085E6,7.1367E4,1.16918E5,7.1553E4,1.2898E4,1.2992E4,1.1389E4,2.103E4,8.47E2,1.342238E6,3.2362E4,3.9005E4,5.8479E4,5.8439E4,4.5414E4,2.6139E4,6.521E3,6.377E3,6.478E3,6.514E3,4.875E3,6.514E3,1.2852E4,8.178E3],"tree_param":{"num_deleted":"0","num_feature":"4","num_nodes":"31","size_leaf_vector":"1"}},{"base_weights":[-2.3601302E-3,-7.707695E-1,2.1107752E1,-1.420929E0,4.11921E0,1.376506E1,2.7007536E1,-1.5227457E0,4.9734598E-1,2.6983752E0,6.444904E0,1.1277229E1,1.6248009E1,1.4438951E1,3.37487E1,5.0264204E-1,-6.838846E-2,-2.864537E-3,3.6479298E-2,8.034975E-2,1.5283844E-1,2.391013E-1,3.466235E-1,4.7420007E-1,5.3322804E-1,6.5862083E-1,7.931979E-1,1.8757784E-1,9.873824E-1,1.2030321E0,1.9976536E0],"categories":[],"categories_nodes":[],"categories_segments":[],"categories_sizes":[],"default_left":[0,0,0,0,0,0,0,0,0,0,0,0,0,0,0,0,0,0,0,0,0,0,0,0,0,0,0,0,0,0,0],"id":11,"left_children":[1,3,5,7,9,11,13,15,17,19,21,23,25,27,29,-1,-1,-1,-1,-1,-1,-1,-1,-1,-1,-1,-1,-1,-1,-1,-1],"loss_changes":[2.694618E7,5.0958195E6,2.527064E6,2.76315E5,6.2154175E5,1.60392E5,2.740342E6,1.3944575E5,1.2781174E4,7.594219E4,1.023935E5,5.54225E3,2.92505E4,8.8627975E5,1.573586E6,0E0,0E0,0E0,0E0,0E0,0E0,0E0,0E0,0E0,0E0,0E0,0E0,0E0,0E0,0E0,0E0],"parents":[2147483647,0,0,1,1,2,2,3,3,4,4,5,5,6,6,7,7,8,8,9,9,10,10,11,11,12,12,13,13,14,14],"right_children":[2,4,6,8,10,12,14,16,18,20,22,24,26,28,30,-1,-1,-1,-1,-1,-1,-1,-1,-1,-1,-1,-1,-1,-1,-1,-1],"split_conditions":[1.8741558E-1,6.421786E-2,3.3330688E-1,4.981449E-2,1.0937373E-1,2.3273921E-1,1E0,1E0,5.411625E-2,7.9902045E-2,1.3923809E-1,2.0584406E-1,2.7297693E-1,4.6168155E2,5.7589334E-1,5.0264204E-1,-6.838846E-2,-2.864537E-3,3.6479298E-2,8.034975E-2,1.5283844E-1,2.391013E-1,3.466235E-1,4.7420007E-1,5.3322804E-1,6.5862083E-1,7.931979E-1,1.8757784E-1,9.873824E-1,1.2030321E0,1.9976536E0],"split_indices":[1,1,1,1,1,1,2,2,1,1,1,1,1,1,1,0,0,0,0,0,0,0,0,0,0,0,0,0,0,0,0],"split_type":[0,0,0,0,0,0,0,0,0,0,0,0,0,0,0,0,0,0,0,0,0,0,0,0,0,0,0,0,0,0,0],"sum_hessian":[1.661168E6,1.602826E6,5.8342E4,1.414728E6,1.88098E5,2.5994E4,3.2348E4,1.343423E6,7.1305E4,1.16765E5,7.1333E4,1.2987E4,1.3007E4,1.1294E4,2.1054E4,8.53E2,1.34257E6,2.5847E4,4.5458E4,5.2021E4,6.4744E4,3.8953E4,3.238E4,6.486E3,6.501E3,6.515E3,6.492E3,4.835E3,6.459E3,1.2985E4,8.069E3],"tree_param":{"num_deleted":"0","num_feature":"4","num_nodes":"31","size_leaf_vector":"1"}},{"base_weights":[-4.926945E-3,-7.3691934E-1,2.0122568E1,-1.3707372E0,3.8427873E0,1.3143839E1,2.5700624E1,-1.455919E0,3.964883E-1,2.5051851E0,6.1487136E0,1.0758017E1,1.5512684E1,1.3582578E1,3.2204533E1,-7.903072E-2,-5.3159244E-2,-2.5441786E-3,3.1141628E-2,8.1541225E-2,1.5369165E-1,2.3569891E-1,3.424248E-1,4.5455608E-1,5.0661826E-1,6.287829E-1,7.569764E-1,1.726255E-1,9.2888486E-1,1.1466608E0,1.904876E0],"categories":[],"categories_nodes":[],"categories_segments":[],"categories_sizes":[],"default_left":[0,0,0,0,0,0,0,0,0,0,0,0,0,0,0,0,0,0,0,0,0,0,0,0,0,0,0,0,0,0,0],"id":12,"left_children":[1,3,5,7,9,11,13,15,17,19,21,23,25,27,29,-1,-1,-1,-1,-1,-1,-1,-1,-1,-1,-1,-1,-1,-1,-1,-1],"loss_changes":[2.4488126E7,4.6553025E6,2.270162E6,2.1207625E5,6.0136775E5,1.462785E5,2.55434E6,1.1194275E5,8.830779E3,7.8453625E4,9.467625E4,4.26925E3,2.6524E4,7.93364E5,1.437784E6,0E0,0E0,0E0,0E0,0E0,0E0,0E0,0E0,0E0,0E0,0E0,0E0,0E0,0E0,0E0,0E0],"parents":[2147483647,0,0,1,1,2,2,3,3,4,4,5,5,6,6,7,7,8,8,9,9,10,10,11,11,12,12,13,13,14,14],"right_children":[2,4,6,8,10,12,14,16,18,20,22,24,26,28,30,-1,-1,-1,-1,-1,-1,-1,-1,-1,-1,-1,-1,-1,-1,-1,-1],"split_conditions":[1.8741558E-1,6.2585354E-2,3.3330688E-1,4.981449E-2,1.0937373E-1,2.3273921E-1,1E0,3.0955815E-4,5.411625E-2,8.4733374E-2,1.4605753E-1,2.0584406E-1,2.7297693E-1,4.6168155E2,5.7589334E-1,-7.903072E-2,-5.3159244E-2,-2.5441786E-3,3.1141628E-2,8.1541225E-2,1.5369165E-1,2.3569891E-1,3.424248E-1,4.5455608E-1,5.0661826E-1,6.287829E-1,7.569764E-1,1.726255E-1,9.2888486E-1,1.1466608E0,1.904876E0],"split_indices":[1,1,1,1,1,1,2,1,1,1,1,1,1,1,1,0,0,0,0,0,0,0,0,0,0,0,0,0,0,0,0],"split_type":[0,0,0,0,0,0,0,0,0,0,0,0,0,0,0,0,0,0,0,0,0,0,0,0,0,0,0,0,0,0,0],"sum_hessian":[1.662106E6,1.603781E6,5.8325E4,1.408807E6,1.94974E5,2.5911E4,3.2414E4,1.344024E6,6.4783E4,1.23397E5,7.1577E4,1.2912E4,1.2999E4,1.1322E4,2.1092E4,6.17212E5,7.26812E5,2.5827E4,3.8956E4,7.1453E4,5.1944E4,4.5436E4,2.6141E4,6.464E3,6.448E3,6.493E3,6.506E3,4.823E3,6.499E3,1.2971E4,8.121E3],"tree_param":{"num_deleted":"0","num_feature":"4","num_nodes":"31","size_leaf_vector":"1"}},{"base_weights":[4.9966425E-3,-7.0185935E-1,1.9328161E1,-1.2847401E0,3.8496192E0,1.2549716E1,2.4739807E1,-1.3851801E0,6.145068E-1,2.634398E0,6.0428877E0,1.0279911E1,1.4825541E1,1.332792E1,3.0846474E1,4.7435907E-1,-6.2218733E-2,1.4883621E-2,4.9395915E-2,8.698102E-2,1.5600665E-1,2.3179562E-1,3.2700604E-1,4.3347415E-1,4.853406E-1,5.9965914E-1,7.253133E-1,1.6765958E-1,9.166359E-1,1.0985599E0,1.8233109E0],"categories":[],"categories_nodes":[],"categories_segments":[],"categories_sizes":[],"default_left":[0,0,0,0,0,0,0,0,0,0,0,0,0,0,0,0,0,0,0,0,0,0,0,0,0,0,0,0,0,0,0],"id":13,"left_children":[1,3,5,7,9,11,13,15,17,19,21,23,25,27,29,-1,-1,-1,-1,-1,-1,-1,-1,-1,-1,-1,-1,-1,-1,-1,-1],"loss_changes":[2.2696614E7,4.252863E6,2.15079E6,2.7108475E5,4.85038E5,1.34336E5,2.271926E6,1.2283875E5,9.863932E3,6.903825E4,7.07405E4,4.288125E3,2.54905E4,7.8263225E5,1.323396E6,0E0,0E0,0E0,0E0,0E0,0E0,0E0,0E0,0E0,0E0,0E0,0E0,0E0,0E0,0E0,0E0],"parents":[2147483647,0,0,1,1,2,2,3,3,4,4,5,5,6,6,7,7,8,8,9,9,10,10,11,11,12,12,13,13,14,14],"right_children":[2,4,6,8,10,12,14,16,18,20,22,24,26,28,30,-1,-1,-1,-1,-1,-1,-1,-1,-1,-1,-1,-1,-1,-1,-1,-1],"split_conditions":[1.8741558E-1,6.5912314E-2,3.3330688E-1,5.061943E-2,1.135342E-1,2.3273921E-1,1E0,1E0,5.952694E-2,8.729908E-2,1.4605753E-1,2.0584406E-1,2.7297693E-1,4.6168155E2,5.7589334E-1,4.7435907E-1,-6.2218733E-2,1.4883621E-2,4.9395915E-2,8.698102E-2,1.5600665E-1,2.3179562E-1,3.2700604E-1,4.3347415E-1,4.853406E-1,5.9965914E-1,7.253133E-1,1.6765958E-1,9.166359E-1,1.0985599E0,1.8233109E0],"split_indices":[1,1,1,1,1,1,2,2,1,1,1,1,1,1,1,0,0,0,0,0,0,0,0,0,0,0,0,0,0,0,0],"split_type":[0,0,0,0,0,0,0,0,0,0,0,0,0,0,0,0,0,0,0,0,0,0,0,0,0,0,0,0,0,0,0],"sum_hessian":[1.661695E6,1.603055E6,5.864E4,1.421068E6,1.81987E5,2.6034E4,3.2606E4,1.349691E6,7.1377E4,1.17105E5,6.4882E4,1.3037E4,1.2997E4,1.1367E4,2.1239E4,8.51E2,1.34884E6,4.5385E4,2.5992E4,6.5014E4,5.2091E4,3.8882E4,2.6E4,6.571E3,6.466E3,6.523E3,6.474E3,4.876E3,6.491E3,1.3052E4,8.187E3],"tree_param":{"num_deleted":"0","num_feature":"4","num_nodes":"31","size_leaf_vector":"1"}},{"base_weights":[-5.6615805E-5,-5.78043E-1,2.0556784E1,-1.1095927E0,4.4141903E0,1.407407E1,2.9160976E1,1.24006E1,-1.1733544E0,3.3681393E0,6.9606824E0,1.1671369E1,1.6450996E1,1.2528368E1,3.3661427E1,5.5992013E-1,4.1461802E-1,-5.9662156E-2,3.6051437E-2,1.196829E-1,1.9432297E-1,2.8135058E-1,3.8574618E-1,4.6495962E-1,5.772088E-1,3.633822E-1,7.505055E-1,5.9644777E-1,5.473378E-1,1.3485488E0,2.0530853E0],"categories":[],"categories_nodes":[],"categories_segments":[],"categories_sizes":[],"default_left":[0,0,0,0,0,0,0,0,0,0,0,0,0,0,0,0,0,0,0,0,0,0,0,0,0,0,0,0,0,0,0],"id":14,"left_children":[1,3,5,7,9,11,13,15,17,19,21,23,25,27,29,-1,-1,-1,-1,-1,-1,-1,-1,-1,-1,-1,-1,-1,-1,-1,-1],"loss_changes":[1.9759044E7,4.292289E6,2.53634E6,1.2593155E6,4.14599E5,1.47947E5,1.462304E6,2.73625E3,4.673065E5,7.4626625E4,5.022725E4,2.0231E4,3.77045E4,7.83E2,6.55638E5,0E0,0E0,0E0,0E0,0E0,0E0,0E0,0E0,0E0,0E0,0E0,0E0,0E0,0E0,0E0,0E0],"parents":[2147483647,0,0,1,1,2,2,3,3,4,4,5,5,6,6,7,7,8,8,9,9,10,10,11,11,12,12,13,13,14,14],"right_children":[2,4,6,8,10,12,14,16,18,20,22,24,26,28,30,-1,-1,-1,-1,-1,-1,-1,-1,-1,-1,-1,-1,-1,-1,-1,-1],"split_conditions":[2.7060392E1,2.5757513E1,2.919234E1,1E0,2.6333925E1,2.77156E1,1E0,2.5004078E1,2.5498692E1,2.6024168E1,2.6740421E1,2.732245E1,1E0,3.2046787E1,3.2046787E1,5.5992013E-1,4.1461802E-1,-5.9662156E-2,3.6051437E-2,1.196829E-1,1.9432297E-1,2.8135058E-1,3.8574618E-1,4.6495962E-1,5.772088E-1,3.633822E-1,7.505055E-1,5.9644777E-1,5.473378E-1,1.3485488E0,2.0530853E0],"split_indices":[0,0,0,2,0,0,2,0,0,0,0,0,2,0,0,0,0,0,0,0,0,0,0,0,0,0,0,0,0,0,0],"split_type":[0,0,0,0,0,0,0,0,0,0,0,0,0,0,0,0,0,0,0,0,0,0,0,0,0,0,0,0,0,0,0],"sum_hessian":[1.662997E6,1.617519E6,4.5478E4,1.461867E6,1.55652E5,2.5938E4,1.954E4,6.866E3,1.455001E6,1.10332E5,4.532E4,1.2902E4,1.3036E4,4.162E3,1.5378E4,6.582E3,2.84E2,1.344866E6,1.10135E5,6.4833E4,4.5499E4,3.2472E4,1.2848E4,6.42E3,6.482E3,5.26E2,1.251E4,1.034E3,3.128E3,1.1993E4,3.385E3],"tree_param":{"num_deleted":"0","num_feature":"4","num_nodes":"31","size_leaf_vector":"1"}},{"base_weights":[3.4648443E-3,-5.070121E-1,2.1264736E1,-1.0570399E0,4.442069E0,1.4639344E1,2.7942614E1,1.2699757E1,-1.1212826E0,3.3152483E0,7.3385897E0,1.3383775E1,1.7204266E1,5.3946763E-1,3.220979E1,5.7309526E-1,4.266218E-1,-5.7012163E-2,3.434836E-2,1.17383756E-1,1.9615845E-1,2.908086E-1,4.2051873E-1,5.5354065E-1,6.4192474E-1,4.621451E-1,7.8475404E-1,1.2917109E0,1.964505E0],"categories":[],"categories_nodes":[],"categories_segments":[],"categories_sizes":[],"default_left":[0,0,0,0,0,0,0,0,0,0,0,0,0,0,0,0,0,0,0,0,0,0,0,0,0,0,0,0,0],"id":15,"left_children":[1,3,5,7,9,11,13,15,17,19,21,23,25,-1,27,-1,-1,-1,-1,-1,-1,-1,-1,-1,-1,-1,-1,-1,-1],"loss_changes":[1.8044572E7,4.419639E6,1.724294E6,1.2913836E6,5.3000675E5,6.27935E4,1.313986E6,2.636E3,4.2591588E5,8.647025E4,7.814925E4,1.26835E4,1.5796375E4,0E0,5.9178E5,0E0,0E0,0E0,0E0,0E0,0E0,0E0,0E0,0E0,0E0,0E0,0E0,0E0,0E0],"parents":[2147483647,0,0,1,1,2,2,3,3,4,4,5,5,6,6,7,7,8,8,9,9,10,10,11,11,12,12,14,14],"right_children":[2,4,6,8,10,12,14,16,18,20,22,24,26,-1,28,-1,-1,-1,-1,-1,-1,-1,-1,-1,-1,-1,-1,-1,-1],"split_conditions":[2.732245E1,2.5757513E1,2.919234E1,1E0,2.6396395E1,2.8297348E1,1E0,2.50413E1,2.5498692E1,2.6059948E1,2.6876637E1,2.77156E1,1E0,5.3946763E-1,3.2046787E1,5.7309526E-1,4.266218E-1,-5.7012163E-2,3.434836E-2,1.17383756E-1,1.9615845E-1,2.908086E-1,4.2051873E-1,5.5354065E-1,6.4192474E-1,4.621451E-1,7.8475404E-1,1.2917109E0,1.964505E0],"split_indices":[0,0,0,2,0,0,2,0,0,0,0,0,2,0,0,0,0,0,0,0,0,0,0,0,0,0,0,0,0],"split_type":[0,0,0,0,0,0,0,0,0,0,0,0,0,0,0,0,0,0,0,0,0,0,0,0,0,0,0,0,0],"sum_hessian":[1.662573E6,1.623592E6,3.8981E4,1.461199E6,1.62393E5,1.9569E4,1.9412E4,6.791E3,1.454408E6,1.16913E5,4.548E4,1.3142E4,6.427E3,4.115E3,1.5297E4,6.521E3,2.7E2,1.344227E6,1.10181E5,7.1325E4,4.5588E4,3.25E4,1.298E4,6.554E3,6.588E3,3.24E2,6.103E3,1.1953E4,3.344E3],"tree_param":{"num_deleted":"0","num_feature":"4","num_nodes":"29","size_leaf_vector":"1"}},{"base_weights":[2.5537896E-3,-6.1198956E-1,1.6873789E1,-1.1424662E0,3.2159567E0,1.0926406E1,2.1633705E1,-1.4248335E0,-7.2758496E-1,2.1828973E0,5.2792635E0,8.946058E0,1.2908965E1,1.1710022E1,2.6932858E1,3.810615E-1,-6.410009E-2,-3.816738E-2,1.7267194E-2,6.8756096E-2,1.3258043E-1,2.0267245E-1,2.8532737E-1,3.7721762E-1,4.2200723E-1,5.2274084E-1,6.2975705E-1,1.035274E-1,8.338049E-1,9.5427597E-1,1.5990672E0],"categories":[],"categories_nodes":[],"categories_segments":[],"categories_sizes":[],"default_left":[0,0,0,0,0,0,0,0,0,0,0,0,0,0,0,0,0,0,0,0,0,0,0,0,0,0,0,0,0,0,0],"id":16,"left_children":[1,3,5,7,9,11,13,15,17,19,21,23,25,27,29,-1,-1,-1,-1,-1,-1,-1,-1,-1,-1,-1,-1,-1,-1,-1,-1],"loss_changes":[1.7218654E7,3.2538258E6,1.652078E6,1.6486725E5,4.1569625E5,1.017645E5,1.704506E6,8.3722125E4,8.050772E4,6.566781E4,5.3487625E4,3.183375E3,1.843425E4,7.37245E5,1.042678E6,0E0,0E0,0E0,0E0,0E0,0E0,0E0,0E0,0E0,0E0,0E0,0E0,0E0,0E0,0E0,0E0],"parents":[2147483647,0,0,1,1,2,2,3,3,4,4,5,5,6,6,7,7,8,8,9,9,10,10,11,11,12,12,13,13,14,14],"right_children":[2,4,6,8,10,12,14,16,18,20,22,24,26,28,30,-1,-1,-1,-1,-1,-1,-1,-1,-1,-1,-1,-1,-1,-1,-1,-1],"split_conditions":[1.8741558E-1,6.2585354E-2,3.3330688E-1,1.5890654E-2,1.135342E-1,2.3273921E-1,1E0,1E0,5.061943E-2,8.4733374E-2,1.4605753E-1,2.0584406E-1,2.7297693E-1,4.6168155E2,5.7589334E-1,3.810615E-1,-6.410009E-2,-3.816738E-2,1.7267194E-2,6.8756096E-2,1.3258043E-1,2.0267245E-1,2.8532737E-1,3.7721762E-1,4.2200723E-1,5.2274084E-1,6.2975705E-1,1.035274E-1,8.338049E-1,9.5427597E-1,1.5990672E0],"split_indices":[1,1,1,1,1,1,2,2,1,1,1,1,1,1,1,0,0,0,0,0,0,0,0,0,0,0,0,0,0,0,0],"split_type":[0,0,0,0,0,0,0,0,0,0,0,0,0,0,0,0,0,0,0,0,0,0,0,0,0,0,0,0,0,0,0],"sum_hessian":[1.660731E6,1.602365E6,5.8366E4,1.407337E6,1.95028E5,2.5948E4,3.2418E4,8.37401E5,5.69936E5,1.29961E5,6.5067E4,1.2984E4,1.2964E4,1.1286E4,2.1132E4,8.43E2,8.36558E5,5.11703E5,5.8233E4,7.14E4,5.8561E4,3.896E4,2.6107E4,6.491E3,6.493E3,6.435E3,6.529E3,4.802E3,6.484E3,1.2977E4,8.155E3],"tree_param":{"num_deleted":"0","num_feature":"4","num_nodes":"31","size_leaf_vector":"1"}},{"base_weights":[-1.111029E-3,-5.853709E-1,1.6035698E1,-1.0841583E0,3.1649282E0,1.1319255E1,2.572256E1,-1.3841913E0,-7.027175E-1,2.154841E0,5.0901937E0,9.824679E0,1.42984295E1,2.9435703E1,1.1238235E1,3.5940862E-1,-6.2071618E-2,-3.736336E-2,1.9480655E-2,7.078888E-2,1.3116175E-1,1.943082E-1,2.7672654E-1,3.7806883E-1,7.8281415E-1,5.8583313E-1,6.928393E-1,1.1772556E0,1.8091413E0,1.4690897E-1,7.648086E-1],"categories":[],"categories_nodes":[],"categories_segments":[],"categories_sizes":[],"default_left":[0,0,0,0,0,0,0,0,0,0,0,0,0,0,0,0,0,0,0,0,0,0,0,0,0,0,0,0,0,0,0],"id":17,"left_children":[1,3,5,7,9,11,13,15,17,19,21,23,25,27,29,-1,-1,-1,-1,-1,-1,-1,-1,-1,-1,-1,-1,-1,-1,-1,-1],"loss_changes":[1.5564324E7,2.998107E6,2.667494E6,1.618935E5,3.65866E5,1.74727E5,1.027989E6,3.9409875E4,9.4797875E4,5.49675E4,5.2923E4,2.7403575E5,1.861075E4,5.17907E5,1.824465E5,0E0,0E0,0E0,0E0,0E0,0E0,0E0,0E0,0E0,0E0,0E0,0E0,0E0,0E0,0E0,0E0],"parents":[2147483647,0,0,1,1,2,2,3,3,4,4,5,5,6,6,7,7,8,8,9,9,10,10,11,11,12,12,13,13,14,14],"right_children":[2,4,6,8,10,12,14,16,18,20,22,24,26,28,30,-1,-1,-1,-1,-1,-1,-1,-1,-1,-1,-1,-1,-1,-1,-1,-1],"split_conditions":[1.8741558E-1,2.5644114E1,2.919234E1,1.2746525E-2,2.6138481E1,2.77156E1,1E0,2.5E1,5.061943E-2,2.587519E1,2.6465704E1,4.6168155E2,2.8297348E1,3.2046787E1,4.6168155E2,3.5940862E-1,-6.2071618E-2,-3.736336E-2,1.9480655E-2,7.078888E-2,1.3116175E-1,1.943082E-1,2.7672654E-1,3.7806883E-1,7.8281415E-1,5.8583313E-1,6.928393E-1,1.1772556E0,1.8091413E0,1.4690897E-1,7.648086E-1],"split_indices":[1,0,0,1,0,0,3,0,1,0,0,1,0,0,1,0,0,0,0,0,0,0,0,0,0,0,0,0,0,0,0],"split_type":[0,0,0,0,0,0,0,0,0,0,0,0,0,0,0,0,0,0,0,0,0,0,0,0,0,0,0,0,0,0,0],"sum_hessian":[1.661138E6,1.602747E6,5.8391E4,1.414606E6,1.88141E5,3.9272E4,1.9119E4,7.91795E5,6.22811E5,1.23401E5,6.474E4,2.6155E4,1.3117E4,1.5217E4,3.902E3,4.42E2,7.91353E5,5.57391E5,6.542E4,7.1334E4,5.2067E4,3.8754E4,2.5986E4,2.2226E4,3.929E3,6.636E3,6.481E3,1.1903E4,3.314E3,1.66E3,2.242E3],"tree_param":{"num_deleted":"0","num_feature":"4","num_nodes":"31","size_leaf_vector":"1"}},{"base_weights":[1.2354556E-3,-4.8002604E-1,1.7106283E1,-9.6435434E-1,3.3389027E0,1.1706175E1,2.4324055E1,1.0584785E1,-1.0191535E0,2.3450363E0,5.43132E0,9.733535E0,1.3665364E1,1.0229485E1,2.8125792E1,4.77343E-1,3.5481742E-1,-4.972115E-2,2.1145547E-2,7.7756085E-2,1.4195085E-1,2.1147648E-1,3.0484116E-1,3.8687086E-1,4.8150125E-1,3.268036E-1,6.222946E-1,4.9251097E-1,4.524313E-1,1.1243947E0,1.7253284E0],"categories":[],"categories_nodes":[],"categories_segments":[],"categories_sizes":[],"default_left":[0,0,0,0,0,0,0,0,0,0,0,0,0,0,0,0,0,0,0,0,0,0,0,0,0,0,0,0,0,0,0],"id":18,"left_children":[1,3,5,7,9,11,13,15,17,19,21,23,25,27,29,-1,-1,-1,-1,-1,-1,-1,-1,-1,-1,-1,-1,-1,-1,-1,-1],"loss_changes":[1.3673829E7,2.9882452E6,1.771443E6,9.07418E5,3.781285E5,1.003665E5,1.04208E6,1.713125E3,1.9988212E5,6.2033938E4,5.683625E4,1.44435E4,2.181875E4,2.2321875E2,4.74378E5,0E0,0E0,0E0,0E0,0E0,0E0,0E0,0E0,0E0,0E0,0E0,0E0,0E0,0E0,0E0,0E0],"parents":[2147483647,0,0,1,1,2,2,3,3,4,4,5,5,6,6,7,7,8,8,9,9,10,10,11,11,12,12,13,13,14,14],"right_children":[2,4,6,8,10,12,14,16,18,20,22,24,26,28,30,-1,-1,-1,-1,-1,-1,-1,-1,-1,-1,-1,-1,-1,-1,-1,-1],"split_conditions":[2.7060392E1,2.5678587E1,2.919234E1,1E0,2.6227888E1,2.77156E1,1E0,2.5004078E1,2.5498692E1,2.5930933E1,2.6633463E1,2.732245E1,1E0,3.0464207E1,3.2046787E1,4.77343E-1,3.5481742E-1,-4.972115E-2,2.1145547E-2,7.7756085E-2,1.4195085E-1,2.1147648E-1,3.0484116E-1,3.8687086E-1,4.8150125E-1,3.268036E-1,6.222946E-1,4.9251097E-1,4.524313E-1,1.1243947E0,1.7253284E0],"split_indices":[0,0,0,2,0,0,2,0,0,0,0,0,2,0,0,0,0,0,0,0,0,0,0,0,0,0,0,0,0,0,0],"split_type":[0,0,0,0,0,0,0,0,0,0,0,0,0,0,0,0,0,0,0,0,0,0,0,0,0,0,0,0,0,0,0],"sum_hessian":[1.661056E6,1.615601E6,4.5455E4,1.433767E6,1.81834E5,2.6003E4,1.9452E4,6.77E3,1.426997E6,1.2328E5,5.8554E4,1.296E4,1.3043E4,4.133E3,1.5319E4,6.519E3,2.51E2,1.342574E6,8.4423E4,7.1424E4,5.1856E4,3.9017E4,1.9537E4,6.397E3,6.563E3,5.23E2,1.252E4,4.57E2,3.676E3,1.1955E4,3.364E3],"tree_param":{"num_deleted":"0","num_feature":"4","num_nodes":"31","size_leaf_vector":"1"}},{"base_weights":[-2.5144701E-3,-5.360655E-1,1.4656385E1,-9.9071175E-1,2.8881817E0,1.0369974E1,2.344432E1,-1.2426734E0,-5.806093E-1,1.8880527E0,4.5226893E0,9.62154E0,1.64257E1,2.6879059E1,9.719883E0,-6.018395E-2,-4.4431005E-2,-3.1638082E-2,2.0368153E-2,5.5930004E-2,1.071646E-1,1.6704832E-1,2.4344933E-1,2.9497984E-1,5.414071E-1,7.439326E-1,5.844567E-1,1.0744735E0,1.6457438E0,9.8598756E-2,6.872284E-1],"categories":[],"categories_nodes":[],"categories_segments":[],"categories_sizes":[],"default_left":[0,0,0,0,0,0,0,0,0,0,0,0,0,0,0,0,0,0,0,0,0,0,0,0,0,0,0,0,0,0,0],"id":19,"left_children":[1,3,5,7,9,11,13,15,17,19,21,23,25,27,29,-1,-1,-1,-1,-1,-1,-1,-1,-1,-1,-1,-1,-1,-1,-1,-1],"loss_changes":[1.2989246E7,2.4947055E6,2.196785E6,1.461715E5,3.0702762E5,1.775315E5,9.01099E5,2.272425E4,7.120961E4,3.785747E4,5.1746875E4,2.63011E5,3.05575E3,4.2976E5,1.6288919E5,0E0,0E0,0E0,0E0,0E0,0E0,0E0,0E0,0E0,0E0,0E0,0E0,0E0,0E0,0E0,0E0],"parents":[2147483647,0,0,1,1,2,2,3,3,4,4,5,5,6,6,7,7,8,8,9,9,10,10,11,11,12,12,13,13,14,14],"right_children":[2,4,6,8,10,12,14,16,18,20,22,24,26,28,30,-1,-1,-1,-1,-1,-1,-1,-1,-1,-1,-1,-1,-1,-1,-1,-1],"split_conditions":[1.8741558E-1,2.5644114E1,2.919234E1,1.8573206E-2,2.6097189E1,4.6168155E2,1E0,3.0955815E-4,5.172806E-2,2.5801311E1,2.6396395E1,2.732245E1,2.77156E1,3.2046787E1,4.6168155E2,-6.018395E-2,-4.4431005E-2,-3.1638082E-2,2.0368153E-2,5.5930004E-2,1.071646E-1,1.6704832E-1,2.4344933E-1,2.9497984E-1,5.414071E-1,7.439326E-1,5.844567E-1,1.0744735E0,1.6457438E0,9.8598756E-2,6.872284E-1],"split_indices":[1,0,0,1,0,1,3,1,1,0,0,0,0,0,1,0,0,0,0,0,0,0,0,0,0,0,0,0,0,0,0],"split_type":[0,0,0,0,0,0,0,0,0,0,0,0,0,0,0,0,0,0,0,0,0,0,0,0,0,0,0,0,0,0,0],"sum_hessian":[1.660757E6,1.602433E6,5.8324E4,1.414612E6,1.87821E5,3.9204E4,1.912E4,8.76252E5,5.3836E5,1.16524E5,7.1297E4,3.4894E4,4.31E3,1.5292E4,3.828E3,6.16477E5,2.59775E5,4.79349E5,5.9011E4,5.1901E4,6.4623E4,3.8644E4,3.2653E4,1.5802E4,1.9092E4,4.032E3,2.78E2,1.1914E4,3.378E3,1.646E3,2.182E3],"tree_param":{"num_deleted":"0","num_feature":"4","num_nodes":"31","size_leaf_vector":"1"}},{"base_weights":[-1.2752074E-3,-5.1164484E-1,1.4026247E1,-9.60602E-1,2.620829E0,1.0094894E1,1.8939972E1,-1.2324039E0,-6.566265E-1,1.6358237E0,4.1751733E0,8.292513E0,1.28199005E1,9.4805155E0,2.6237356E1,3.3841178E-1,-5.5503566E-2,-3.2760106E-2,1.0901616E-2,5.073121E-2,9.7870514E-2,1.5454942E-1,2.3087113E-1,3.3738872E-1,4.3690586E-1,5.215764E-1,6.243855E-1,6.830462E-2,6.8710303E-1,1.0912479E0,1.7978672E0],"categories":[],"categories_nodes":[],"categories_segments":[],"categories_sizes":[],"default_left":[0,0,0,0,0,0,0,0,0,0,0,0,0,0,0,0,0,0,0,0,0,0,0,0,0,0,0,0,0,0,0],"id":20,"left_children":[1,3,5,7,9,11,13,15,17,19,21,23,25,27,29,-1,-1,-1,-1,-1,-1,-1,-1,-1,-1,-1,-1,-1,-1,-1,-1],"loss_changes":[1.1895883E7,2.2547755E6,1.126661E6,1.15858875E5,3.0770562E5,1.5906525E5,1.789405E6,6.5469625E4,4.5733156E4,3.415097E4,5.5371625E4,2.140475E4,1.6917E4,5.297497E5,3.70044E5,0E0,0E0,0E0,0E0,0E0,0E0,0E0,0E0,0E0,0E0,0E0,0E0,0E0,0E0,0E0,0E0],"parents":[2147483647,0,0,1,1,2,2,3,3,4,4,5,5,6,6,7,7,8,8,9,9,10,10,11,11,12,12,13,13,14,14],"right_children":[2,4,6,8,10,12,14,16,18,20,22,24,26,28,30,-1,-1,-1,-1,-1,-1,-1,-1,-1,-1,-1,-1,-1,-1,-1,-1],"split_conditions":[1.8741558E-1,6.103532E-2,4.3124098E-1,9.109949E-3,1.0572484E-1,2.7297693E-1,1E0,1E0,5.061943E-2,7.9902045E-2,1.3923809E-1,2.3273921E-1,3.3330688E-1,4.6168155E2,7.7039504E-1,3.3841178E-1,-5.5503566E-2,-3.2760106E-2,1.0901616E-2,5.073121E-2,9.7870514E-2,1.5454942E-1,2.3087113E-1,3.3738872E-1,4.3690586E-1,5.215764E-1,6.243855E-1,6.830462E-2,6.8710303E-1,1.0912479E0,1.7978672E0],"split_indices":[1,1,1,1,1,1,2,2,1,1,1,1,1,1,1,0,0,0,0,0,0,0,0,0,0,0,0,0,0,0,0],"split_type":[0,0,0,0,0,0,0,0,0,0,0,0,0,0,0,0,0,0,0,0,0,0,0,0,0,0,0,0,0,0,0],"sum_hessian":[1.661615E6,1.603283E6,5.8332E4,1.402301E6,2.00982E5,3.2407E4,2.5925E4,7.40328E5,6.61973E5,1.23023E5,7.7959E4,1.9508E4,1.2899E4,1.1291E4,1.4634E4,8.42E2,7.39486E5,6.1002E5,5.1953E4,6.4707E4,5.8316E4,4.5308E4,3.2651E4,1.3031E4,6.477E3,6.49E3,6.409E3,4.81E3,6.481E3,1.2962E4,1.672E3],"tree_param":{"num_deleted":"0","num_feature":"4","num_nodes":"31","size_leaf_vector":"1"}},{"base_weights":[2.6175964E-3,-4.8636538E-1,1.342648E1,-9.185643E-1,2.5231683E0,9.527637E0,2.1467436E1,-1.1615427E0,-5.978055E-1,1.578679E0,4.015743E0,8.818257E0,1.53003845E1,9.265501E0,2.4510315E1,2.5360435E-1,-5.2061167E-2,-3.052811E-2,8.977865E-3,4.865728E-2,9.489867E-2,1.5367045E-1,2.3049064E-1,4.2867902E-1,4.423508E-2,7.1181095E-1,5.6707174E-1,1.2589505E-1,6.3113654E-1,8.150944E-1,1.2736343E0],"categories":[],"categories_nodes":[],"categories_segments":[],"categories_sizes":[],"default_left":[0,0,0,0,0,0,0,0,0,0,0,0,0,0,0,0,0,0,0,0,0,0,0,0,0,0,0,0,0,0,0],"id":21,"left_children":[1,3,5,7,9,11,13,15,17,19,21,23,25,27,29,-1,-1,-1,-1,-1,-1,-1,-1,-1,-1,-1,-1,-1,-1,-1,-1],"loss_changes":[1.0904597E7,2.0848909E6,1.830253E6,1.09235875E5,2.8374662E5,1.6089525E5,7.07638E5,2.0961E4,4.1288594E4,3.2921938E4,5.1360125E4,2.1319725E5,6.9006875E3,1.1930906E5,3.81828E5,0E0,0E0,0E0,0E0,0E0,0E0,0E0,0E0,0E0,0E0,0E0,0E0,0E0,0E0,0E0,0E0],"parents":[2147483647,0,0,1,1,2,2,3,3,4,4,5,5,6,6,7,7,8,8,9,9,10,10,11,11,12,12,13,13,14,14],"right_children":[2,4,6,8,10,12,14,16,18,20,22,24,26,28,30,-1,-1,-1,-1,-1,-1,-1,-1,-1,-1,-1,-1,-1,-1,-1,-1],"split_conditions":[1.8741558E-1,2.5612001E1,2.919234E1,1.3198705E-2,2.6059948E1,4.6168155E2,1E0,2.5E1,2.5498692E1,2.5801311E1,2.6465704E1,7.7039504E-1,2.5E1,4.6168155E2,3.0464207E1,2.5360435E-1,-5.2061167E-2,-3.052811E-2,8.977865E-3,4.865728E-2,9.489867E-2,1.5367045E-1,2.3049064E-1,4.2867902E-1,4.423508E-2,7.1181095E-1,5.6707174E-1,1.2589505E-1,6.3113654E-1,8.150944E-1,1.2736343E0],"split_indices":[1,0,0,1,0,1,2,0,0,0,0,1,0,1,0,0,0,0,0,0,0,0,0,0,0,0,0,0,0,0,0],"split_type":[0,0,0,0,0,0,0,0,0,0,0,0,0,0,0,0,0,0,0,0,0,0,0,0,0,0,0,0,0,0,0],"sum_hessian":[1.661261E6,1.602875E6,5.8386E4,1.401593E6,2.01282E5,3.9322E4,1.9064E4,7.97486E5,6.04107E5,1.23276E5,7.8006E4,3.5021E4,4.301E3,3.806E3,1.5258E4,4.47E2,7.97039E5,5.45657E5,5.845E4,6.4982E4,5.8294E4,5.1887E4,2.6119E4,3.1856E4,3.165E3,3.456E3,8.45E2,1.637E3,2.169E3,5.948E3,9.31E3],"tree_param":{"num_deleted":"0","num_feature":"4","num_nodes":"31","size_leaf_vector":"1"}},{"base_weights":[3.8888752E-3,-4.37741E-1,1.3658159E1,-8.527929E-1,2.689598E0,9.957542E0,1.7349865E1,-1.060476E0,-4.4625372E-1,1.8758916E0,4.495663E0,8.095701E0,1.1821772E1,8.792163E0,2.398373E1,2.9306602E-1,-4.768748E-2,-2.5825957E-2,2.2664044E-2,6.1646134E-2,1.1697861E-1,1.7443018E-1,2.5316322E-1,3.2305157E-1,3.9959204E-1,4.795779E-1,5.7675433E-1,4.892709E-2,6.491433E-1,9.964227E-1,1.6608522E0],"categories":[],"categories_nodes":[],"categories_segments":[],"categories_sizes":[],"default_left":[0,0,0,0,0,0,0,0,0,0,0,0,0,0,0,0,0,0,0,0,0,0,0,0,0,0,0,0,0,0,0],"id":22,"left_children":[1,3,5,7,9,11,13,15,17,19,21,23,25,27,29,-1,-1,-1,-1,-1,-1,-1,-1,-1,-1,-1,-1,-1,-1,-1,-1],"loss_changes":[1.001071E7,2.087332E6,7.10393E5,1.198655E5,2.768905E5,9.006775E4,1.47787E6,5.0164125E4,6.0358547E4,4.7840094E4,4.04955E4,9.4751875E3,1.5213875E4,5.022593E5,3.24049E5,0E0,0E0,0E0,0E0,0E0,0E0,0E0,0E0,0E0,0E0,0E0,0E0,0E0,0E0,0E0,0E0],"parents":[2147483647,0,0,1,1,2,2,3,3,4,4,5,5,6,6,7,7,8,8,9,9,10,10,11,11,12,12,13,13,14,14],"right_children":[2,4,6,8,10,12,14,16,18,20,22,24,26,28,30,-1,-1,-1,-1,-1,-1,-1,-1,-1,-1,-1,-1,-1,-1,-1,-1],"split_conditions":[2.0584406E-1,6.5912314E-2,4.3124098E-1,2.2971079E-2,1.22419156E-1,2.7297693E-1,1E0,1E0,5.292622E-2,9.283025E-2,1.6279353E-1,2.3273921E-1,3.3330688E-1,4.6168155E2,7.7039504E-1,2.9306602E-1,-4.768748E-2,-2.5825957E-2,2.2664044E-2,6.1646134E-2,1.1697861E-1,1.7443018E-1,2.5316322E-1,3.2305157E-1,3.9959204E-1,4.795779E-1,5.7675433E-1,4.892709E-2,6.491433E-1,9.964227E-1,1.6608522E0],"split_indices":[1,1,1,1,1,1,2,2,1,1,1,1,1,1,1,0,0,0,0,0,0,0,0,0,0,0,0,0,0,0,0],"split_type":[0,0,0,0,0,0,0,0,0,0,0,0,0,0,0,0,0,0,0,0,0,0,0,0,0,0,0,0,0,0,0],"sum_hessian":[1.660112E6,1.608101E6,5.2011E4,1.419685E6,1.88416E5,2.5976E4,2.6035E4,9.39655E5,4.8003E5,1.29895E5,5.8521E4,1.2999E4,1.2977E4,1.137E4,1.4665E4,8.62E2,9.38793E5,4.21717E5,5.8313E4,7.7886E4,5.2009E4,3.8898E4,1.9623E4,6.447E3,6.552E3,6.501E3,6.476E3,4.857E3,6.513E3,1.3012E4,1.653E3],"tree_param":{"num_deleted":"0","num_feature":"4","num_nodes":"31","size_leaf_vector":"1"}},{"base_weights":[1.1681805E-3,-4.1996384E-1,1.309435E1,-8.0794555E-1,2.6236048E0,9.5030575E0,1.6679594E1,-8.789582E-1,4.2226908E-1,1.8956676E0,4.4483047E0,7.7284203E0,1.1289897E1,8.714244E0,2.2832802E1,-5.035321E-2,-2.9939061E-2,4.684141E-3,3.3035368E-2,6.28319E-2,1.1753498E-1,1.7903334E-1,2.5806284E-1,3.0918866E-1,3.812495E-1,4.5928493E-1,5.490778E-1,6.415004E-2,6.3075393E-1,9.4934916E-1,1.584089E0],"categories":[],"categories_nodes":[],"categories_segments":[],"categories_sizes":[],"default_left":[0,0,0,0,0,0,0,0,0,0,0,0,0,0,0,0,0,0,0,0,0,0,0,0,0,0,0,0,0,0,0],"id":23,"left_children":[1,3,5,7,9,11,13,15,17,19,21,23,25,27,29,-1,-1,-1,-1,-1,-1,-1,-1,-1,-1,-1,-1,-1,-1,-1,-1],"loss_changes":[9.163823E6,1.901338E6,6.66659E5,1.2476E5,2.4179988E5,8.196225E4,1.2699585E6,6.996006E4,7.847551E3,4.6807906E4,3.0365938E4,8.387625E3,1.2893625E4,4.4436325E5,2.91237E5,0E0,0E0,0E0,0E0,0E0,0E0,0E0,0E0,0E0,0E0,0E0,0E0,0E0,0E0,0E0,0E0],"parents":[2147483647,0,0,1,1,2,2,3,3,4,4,5,5,6,6,7,7,8,8,9,9,10,10,11,11,12,12,13,13,14,14],"right_children":[2,4,6,8,10,12,14,16,18,20,22,24,26,28,30,-1,-1,-1,-1,-1,-1,-1,-1,-1,-1,-1,-1,-1,-1,-1,-1],"split_conditions":[2.0584406E-1,6.7656435E-2,4.3124098E-1,5.061943E-2,1.2759472E-1,2.7297693E-1,1E0,3.0955815E-4,5.8100354E-2,9.577852E-2,1.736127E-1,2.3273921E-1,3.3330688E-1,4.6168155E2,7.7039504E-1,-5.035321E-2,-2.9939061E-2,4.684141E-3,3.3035368E-2,6.28319E-2,1.1753498E-1,1.7903334E-1,2.5806284E-1,3.0918866E-1,3.812495E-1,4.5928493E-1,5.490778E-1,6.415004E-2,6.3075393E-1,9.4934916E-1,1.584089E0],"split_indices":[1,1,1,1,1,1,2,1,1,1,1,1,1,1,1,0,0,0,0,0,0,0,0,0,0,0,0,0,0,0,0],"split_type":[0,0,0,0,0,0,0,0,0,0,0,0,0,0,0,0,0,0,0,0,0,0,0,0,0,0,0,0,0,0,0],"sum_hessian":[1.66193E6,1.610142E6,5.1788E4,1.428095E6,1.82047E5,2.5874E4,2.5914E4,1.350159E6,7.7936E4,1.30134E5,5.1913E4,1.2984E4,1.289E4,1.1295E4,1.4619E4,6.16843E5,7.33316E5,3.8957E4,3.8979E4,7.8149E4,5.1985E4,3.8985E4,1.2928E4,6.491E3,6.493E3,6.426E3,6.464E3,4.814E3,6.481E3,1.2994E4,1.625E3],"tree_param":{"num_deleted":"0","num_feature":"4","num_nodes":"31","size_leaf_vector":"1"}},{"base_weights":[1.5531365E-3,-3.6562803E-1,1.30090885E1,-7.030498E-1,2.8003378E0,8.936727E0,1.8458973E1,7.935933E0,-7.434699E-1,2.1265855E0,4.4357114E0,7.403466E0,1.0457024E1,7.8292303E0,2.1339603E1,3.5615247E-1,-1.6426234E-1,-3.750465E-2,2.6650306E-2,7.284891E-2,1.1994336E-1,1.787587E-1,2.4703544E-1,2.94128E-1,3.662913E-1,1.5960151E-1,4.8006678E-1,3.7652093E-1,3.4617856E-1,6.9674104E-1,1.116913E0],"categories":[],"categories_nodes":[],"categories_segments":[],"categories_sizes":[],"default_left":[0,0,0,0,0,0,0,0,0,0,0,0,0,0,0,0,0,0,0,0,0,0,0,0,0,0,0,0,0,0,0],"id":24,"left_children":[1,3,5,7,9,11,13,15,17,19,21,23,25,27,29,-1,-1,-1,-1,-1,-1,-1,-1,-1,-1,-1,-1,-1,-1,-1,-1],"loss_changes":[7.9360855E6,1.7263192E6,1.0122535E6,5.0994662E5,1.7148262E5,6.078525E4,5.97175E5,2.9129688E3,1.8712506E5,3.0514375E4,2.1552938E4,8.42675E3,2.6062E4,1.3426562E2,3.22433E5,0E0,0E0,0E0,0E0,0E0,0E0,0E0,0E0,0E0,0E0,0E0,0E0,0E0,0E0,0E0,0E0],"parents":[2147483647,0,0,1,1,2,2,3,3,4,4,5,5,6,6,7,7,8,8,9,9,10,10,11,11,12,12,13,13,14,14],"right_children":[2,4,6,8,10,12,14,16,18,20,22,24,26,28,30,-1,-1,-1,-1,-1,-1,-1,-1,-1,-1,-1,-1,-1,-1,-1,-1],"split_conditions":[2.7060392E1,2.5757513E1,2.919234E1,1E0,2.6333925E1,2.77156E1,1E0,2.5716038E1,2.5518917E1,2.5991842E1,2.6740421E1,2.732245E1,1E0,3.0464207E1,3.0464207E1,3.5615247E-1,-1.6426234E-1,-3.750465E-2,2.6650306E-2,7.284891E-2,1.1994336E-1,1.787587E-1,2.4703544E-1,2.94128E-1,3.662913E-1,1.5960151E-1,4.8006678E-1,3.7652093E-1,3.4617856E-1,6.9674104E-1,1.116913E0],"split_indices":[0,0,0,2,0,0,2,0,0,0,0,0,2,0,0,0,0,0,0,0,0,0,0,0,0,0,0,0,0,0,0],"split_type":[0,0,0,0,0,0,0,0,0,0,0,0,0,0,0,0,0,0,0,0,0,0,0,0,0,0,0,0,0,0,0],"sum_hessian":[1.661615E6,1.615999E6,4.5616E4,1.460358E6,1.55641E5,2.6109E4,1.9507E4,6.8E3,1.453558E6,1.1023E5,4.5411E4,1.3002E4,1.3107E4,4.16E3,1.5347E4,6.779E3,2.1E1,1.356322E6,9.7236E4,5.8383E4,5.1847E4,3.2513E4,1.2898E4,6.411E3,6.591E3,5.29E2,1.2578E4,4.78E2,3.682E3,5.978E3,9.369E3],"tree_param":{"num_deleted":"0","num_feature":"4","num_nodes":"31","size_leaf_vector":"1"}},{"base_weights":[-3.7372815E-3,-4.0892157E-1,1.1119345E1,-7.681177E-1,2.097899E0,7.923169E0,1.7732376E1,-1.0371938E0,-5.443151E-1,1.3017803E0,3.3535833E0,7.316667E0,1.2916771E1,7.044035E0,2.0422634E1,2.3920745E-1,-4.6535954E-2,-2.6958123E-2,7.681213E-3,4.004487E-2,7.836721E-2,1.321504E-1,2.0214681E-1,3.577197E-1,2.4356777E-2,5.983805E-1,4.001247E-1,6.8481386E-2,4.9789107E-1,8.080241E-1,1.28747E0],"categories":[],"categories_nodes":[],"categories_segments":[],"categories_sizes":[],"default_left":[0,0,0,0,0,0,0,0,0,0,0,0,0,0,0,0,0,0,0,0,0,0,0,0,0,0,0,0,0,0,0],"id":25,"left_children":[1,3,5,7,9,11,13,15,17,19,21,23,25,27,29,-1,-1,-1,-1,-1,-1,-1,-1,-1,-1,-1,-1,-1,-1,-1,-1],"loss_changes":[7.487084E6,1.4432831E6,1.2339725E6,8.442644E4,2.0081612E5,1.191275E5,5.468795E5,1.8356E4,3.2421453E4,2.254836E4,3.6090938E4,1.6421612E5,7.94625E3,8.648131E4,2.97486E5,0E0,0E0,0E0,0E0,0E0,0E0,0E0,0E0,0E0,0E0,0E0,0E0,0E0,0E0,0E0,0E0],"parents":[2147483647,0,0,1,1,2,2,3,3,4,4,5,5,6,6,7,7,8,8,9,9,10,10,11,11,12,12,13,13,14,14],"right_children":[2,4,6,8,10,12,14,16,18,20,22,24,26,28,30,-1,-1,-1,-1,-1,-1,-1,-1,-1,-1,-1,-1,-1,-1,-1,-1],"split_conditions":[1.8741558E-1,2.5612001E1,2.919234E1,1.710915E-3,2.6059948E1,4.6168155E2,1E0,2.5E1,2.5498692E1,2.5801311E1,2.6543016E1,7.7039504E-1,2.6740421E1,4.6168155E2,3.2046787E1,2.3920745E-1,-4.6535954E-2,-2.6958123E-2,7.681213E-3,4.004487E-2,7.836721E-2,1.321504E-1,2.0214681E-1,3.577197E-1,2.4356777E-2,5.983805E-1,4.001247E-1,6.8481386E-2,4.9789107E-1,8.080241E-1,1.28747E0],"split_indices":[1,0,0,1,0,1,2,0,0,0,0,1,0,1,0,0,0,0,0,0,0,0,0,0,0,0,0,0,0,0,0],"split_type":[0,0,0,0,0,0,0,0,0,0,0,0,0,0,0,0,0,0,0,0,0,0,0,0,0,0,0,0,0,0,0],"sum_hessian":[1.661248E6,1.602861E6,5.8387E4,1.401976E6,2.00885E5,3.9364E4,1.9023E4,6.36597E5,7.65379E5,1.22941E5,7.7944E4,3.5103E4,4.261E3,3.826E3,1.5197E4,4.48E2,6.36149E5,7.07003E5,5.8376E4,6.4846E4,5.8095E4,5.8277E4,1.9667E4,3.1853E4,3.25E3,3.8E3,4.61E2,1.633E3,2.193E3,1.1893E4,3.304E3],"tree_param":{"num_deleted":"0","num_feature":"4","num_nodes":"31","size_leaf_vector":"1"}},{"base_weights":[-5.491349E-4,-3.1088036E-1,1.2945352E1,-6.440754E-1,2.6903303E0,8.9348E0,1.6956474E1,6.841144E0,-6.790471E-1,1.9454463E0,4.2786293E0,8.048475E0,1.0710727E1,7.40862E0,1.9526926E1,3.07596E-1,-3.80981E-1,-3.4110136E-2,2.6195623E-2,6.664328E-2,1.09735236E-1,1.6401167E-1,2.3667517E-1,3.3296272E-1,3.8652122E-1,2.6097667E-1,4.8945E-1,2.9515797E-1,3.420513E-1,6.327608E-1,1.0259274E0],"categories":[],"categories_nodes":[],"categories_segments":[],"categories_sizes":[],"default_left":[0,0,0,0,0,0,0,0,0,0,0,0,0,0,0,0,0,0,0,0,0,0,0,0,0,0,0,0,0,0,0],"id":26,"left_children":[1,3,5,7,9,11,13,15,17,19,21,23,25,27,29,-1,-1,-1,-1,-1,-1,-1,-1,-1,-1,-1,-1,-1,-1,-1,-1],"loss_changes":[6.676294E6,1.6228761E6,6.256735E5,3.8237944E5,1.9185475E5,3.0536875E4,4.77179E5,4.6909062E3,1.5547844E5,2.5586219E4,3.2026812E4,4.6003125E3,7.6765E3,7.7034375E2,2.822115E5,0E0,0E0,0E0,0E0,0E0,0E0,0E0,0E0,0E0,0E0,0E0,0E0,0E0,0E0,0E0,0E0],"parents":[2147483647,0,0,1,1,2,2,3,3,4,4,5,5,6,6,7,7,8,8,9,9,10,10,11,11,12,12,13,13,14,14],"right_children":[2,4,6,8,10,12,14,16,18,20,22,24,26,28,30,-1,-1,-1,-1,-1,-1,-1,-1,-1,-1,-1,-1,-1,-1,-1,-1],"split_conditions":[2.732245E1,2.5757513E1,2.919234E1,1E0,2.6333925E1,2.8297348E1,1E0,2.5716038E1,2.5530758E1,2.5991842E1,2.6740421E1,2.77156E1,1E0,3.2046787E1,3.0464207E1,3.07596E-1,-3.80981E-1,-3.4110136E-2,2.6195623E-2,6.664328E-2,1.09735236E-1,1.6401167E-1,2.3667517E-1,3.3296272E-1,3.8652122E-1,2.6097667E-1,4.8945E-1,2.9515797E-1,3.420513E-1,6.327608E-1,1.0259274E0],"split_indices":[0,0,0,2,0,0,2,0,0,0,0,0,2,0,0,0,0,0,0,0,0,0,0,0,0,0,0,0,0,0,0],"split_type":[0,0,0,0,0,0,0,0,0,0,0,0,0,0,0,0,0,0,0,0,0,0,0,0,0,0,0,0,0,0,0],"sum_hessian":[1.661794E6,1.622892E6,3.8902E4,1.460723E6,1.62169E5,1.9454E4,1.9448E4,6.792E3,1.453931E6,1.10397E5,5.1772E4,1.2981E4,6.473E3,4.126E3,1.5322E4,6.773E3,1.9E1,1.362916E6,9.1015E4,5.8481E4,5.1916E4,3.2447E4,1.9325E4,6.544E3,6.437E3,3.12E2,6.161E3,9.82E2,3.144E3,5.988E3,9.334E3],"tree_param":{"num_deleted":"0","num_feature":"4","num_nodes":"31","size_leaf_vector":"1"}},{"base_weights":[6.384636E-4,-3.4897158E-1,1.0821591E1,-6.810412E-1,2.1645794E0,7.655829E0,1.6233797E1,-8.682003E-1,-3.4330755E-1,1.5116925E0,3.6145601E0,7.052913E0,1.1667153E1,6.7112956E0,1.8685564E1,-4.3071266E-2,-2.9912291E-2,-1.9694969E-2,1.832165E-2,4.804149E-2,9.112114E-2,1.3405503E-1,1.9575086E-1,3.5416076E-1,5.0724247E-3,5.3713477E-1,4.5616525E-1,5.6934126E-2,4.8458472E-1,7.348618E-1,1.1894832E0],"categories":[],"categories_nodes":[],"categories_segments":[],"categories_sizes":[],"default_left":[0,0,0,0,0,0,0,0,0,0,0,0,0,0,0,0,0,0,0,0,0,0,0,0,0,0,0,0,0,0,0],"id":27,"left_children":[1,3,5,7,9,11,13,15,17,19,21,23,25,27,29,-1,-1,-1,-1,-1,-1,-1,-1,-1,-1,-1,-1,-1,-1,-1,-1],"loss_changes":[6.287494E6,1.3438041E6,8.91105E5,8.989044E4,1.7785169E5,7.9295E4,4.480425E5,1.74365E4,3.727383E4,2.9842906E4,2.74565E4,1.7325175E5,2.10275E3,8.8406E4,2.70575E5,0E0,0E0,0E0,0E0,0E0,0E0,0E0,0E0,0E0,0E0,0E0,0E0,0E0,0E0,0E0,0E0],"parents":[2147483647,0,0,1,1,2,2,3,3,4,4,5,5,6,6,7,7,8,8,9,9,10,10,11,11,12,12,13,13,14,14],"right_children":[2,4,6,8,10,12,14,16,18,20,22,24,26,28,30,-1,-1,-1,-1,-1,-1,-1,-1,-1,-1,-1,-1,-1,-1,-1,-1],"split_conditions":[2.0584406E-1,2.5661066E1,2.919234E1,2.1187454E-2,2.6227888E1,4.6168155E2,1E0,3.0955815E-4,2.5530758E1,2.5902351E1,2.6543016E1,7.7039504E-1,2.5E1,4.6168155E2,3.2046787E1,-4.3071266E-2,-2.9912291E-2,-1.9694969E-2,1.832165E-2,4.804149E-2,9.112114E-2,1.3405503E-1,1.9575086E-1,3.5416076E-1,5.0724247E-3,5.3713477E-1,4.5616525E-1,5.6934126E-2,4.8458472E-1,7.348618E-1,1.1894832E0],"split_indices":[1,0,0,1,0,1,2,1,0,0,0,1,0,1,0,0,0,0,0,0,0,0,0,0,0,0,0,0,0,0,0],"split_type":[0,0,0,0,0,0,0,0,0,0,0,0,0,0,0,0,0,0,0,0,0,0,0,0,0,0,0,0,0,0,0],"sum_hessian":[1.661987E6,1.609972E6,5.2015E4,1.422097E6,1.87875E5,3.282E4,1.9195E4,9.15024E5,5.07073E5,1.29546E5,5.8329E4,2.8534E4,4.286E3,3.931E3,1.5264E4,6.16975E5,2.98049E5,4.4894E5,5.8133E4,7.0938E4,5.8608E4,3.241E4,2.5919E4,2.5339E4,3.195E3,3.437E3,8.49E2,1.699E3,2.232E3,1.1913E4,3.351E3],"tree_param":{"num_deleted":"0","num_feature":"4","num_nodes":"31","size_leaf_vector":"1"}},{"base_weights":[-3.9830685E-4,-3.3353513E-1,1.0359642E1,-6.5682954E-1,2.0186248E0,7.378213E0,1.546637E1,-8.387778E-1,-3.6135188E-1,1.3555862E0,3.3428414E0,6.7279744E0,1.1749361E1,1.7817732E1,6.220411E0,2.7994952E-1,-3.7633825E-2,-1.9543586E-2,1.51589615E-2,4.2996906E-2,8.193681E-2,1.2483197E-1,1.8572271E-1,3.383341E-1,6.560924E-3,5.352164E-1,3.7656057E-1,5.6928134E-1,9.4029206E-1,5.102349E-2,4.5051017E-1],"categories":[],"categories_nodes":[],"categories_segments":[],"categories_sizes":[],"default_left":[0,0,0,0,0,0,0,0,0,0,0,0,0,0,0,0,0,0,0,0,0,0,0,0,0,0,0,0,0,0,0],"id":28,"left_children":[1,3,5,7,9,11,13,15,17,19,21,23,25,27,29,-1,-1,-1,-1,-1,-1,-1,-1,-1,-1,-1,-1,-1,-1,-1,-1],"loss_changes":[5.7329555E6,1.2238118E6,7.877975E5,7.6065875E4,1.707405E5,9.2795625E4,4.145905E5,2.2730125E4,2.8763422E4,2.4376781E4,2.8976062E4,1.5830725E5,3.1489375E3,2.490285E5,7.591184E4,0E0,0E0,0E0,0E0,0E0,0E0,0E0,0E0,0E0,0E0,0E0,0E0,0E0,0E0,0E0,0E0],"parents":[2147483647,0,0,1,1,2,2,3,3,4,4,5,5,6,6,7,7,8,8,9,9,10,10,11,11,12,12,13,13,14,14],"right_children":[2,4,6,8,10,12,14,16,18,20,22,24,26,28,30,-1,-1,-1,-1,-1,-1,-1,-1,-1,-1,-1,-1,-1,-1,-1,-1],"split_conditions":[2.0584406E-1,2.5644114E1,2.919234E1,1.8573206E-2,2.6181587E1,4.6168155E2,1E0,2.5E1,5.292622E-2,2.587519E1,2.6543016E1,4.3124098E-1,2.77156E1,3.0464207E1,4.6168155E2,2.7994952E-1,-3.7633825E-2,-1.9543586E-2,1.51589615E-2,4.2996906E-2,8.193681E-2,1.2483197E-1,1.8572271E-1,3.383341E-1,6.560924E-3,5.352164E-1,3.7656057E-1,5.6928134E-1,9.4029206E-1,5.102349E-2,4.5051017E-1],"split_indices":[1,0,0,1,0,1,3,0,1,0,0,1,0,0,1,0,0,0,0,0,0,0,0,0,0,0,0,0,0,0,0],"split_type":[0,0,0,0,0,0,0,0,0,0,0,0,0,0,0,0,0,0,0,0,0,0,0,0,0,0,0,0,0,0,0],"sum_hessian":[1.661093E6,1.609344E6,5.1749E4,1.414876E6,1.94468E5,3.2675E4,1.9074E4,8.75662E5,5.39214E5,1.29586E5,6.4882E4,2.8446E4,4.229E3,1.5206E4,3.868E3,4.49E2,8.75213E5,4.8637E5,5.2844E4,7.1147E4,5.8439E4,3.8776E4,2.6106E4,2.5207E4,3.239E3,3.951E3,2.78E2,5.917E3,9.289E3,1.672E3,2.196E3],"tree_param":{"num_deleted":"0","num_feature":"4","num_nodes":"31","size_leaf_vector":"1"}},{"base_weights":[8.9769904E-4,-3.1955507E-1,9.95607E0,-6.053793E-1,2.1230142E0,7.0484257E0,1.4969822E1,-6.736056E-1,3.3743495E-1,1.5996084E0,3.5310318E0,6.412945E0,1.1347501E1,6.605625E0,1.7011066E1,-3.949213E-2,-2.213142E-2,-7.91598E-4,2.5255859E-2,5.233902E-2,9.281517E-2,-4.065776E-1,1.5907475E-1,3.2170942E-1,7.1095335E-3,5.2142197E-1,3.0779842E-1,7.630118E-2,4.543902E-1,6.989246E-1,1.2648486E0],"categories":[],"categories_nodes":[],"categories_segments":[],"categories_sizes":[],"default_left":[0,0,0,0,0,0,0,0,0,0,0,0,0,0,0,0,0,0,0,0,0,0,0,0,0,0,0,0,0,0,0],"id":29,"left_children":[1,3,5,7,9,11,13,15,17,19,21,23,25,27,29,-1,-1,-1,-1,-1,-1,-1,-1,-1,-1,-1,-1,-1,-1,-1,-1],"loss_changes":[5.301163E6,1.1239456E6,7.553665E5,9.270825E4,1.2428494E5,8.9541625E4,3.2464E5,5.0394312E4,7.872583E3,2.5154125E4,1.7262062E4,1.4092938E5,6.0276875E3,6.5176766E4,2.35554E5,0E0,0E0,0E0,0E0,0E0,0E0,0E0,0E0,0E0,0E0,0E0,0E0,0E0,0E0,0E0,0E0],"parents":[2147483647,0,0,1,1,2,2,3,3,4,4,5,5,6,6,7,7,8,8,9,9,10,10,11,11,12,12,13,13,14,14],"right_children":[2,4,6,8,10,12,14,16,18,20,22,24,26,28,30,-1,-1,-1,-1,-1,-1,-1,-1,-1,-1,-1,-1,-1,-1,-1,-1],"split_conditions":[2.0584406E-1,2.5716038E1,2.919234E1,2.5498692E1,2.6333925E1,4.6168155E2,1E0,3.0955815E-4,5.6739204E-2,2.596037E1,0E0,7.7039504E-1,2.77156E1,4.6168155E2,7.7039504E-1,-3.949213E-2,-2.213142E-2,-7.91598E-4,2.5255859E-2,5.233902E-2,9.281517E-2,-4.065776E-1,1.5907475E-1,3.2170942E-1,7.1095335E-3,5.2142197E-1,3.0779842E-1,7.630118E-2,4.543902E-1,6.989246E-1,1.2648486E0],"split_indices":[1,0,0,0,0,1,2,1,1,0,1,1,0,1,1,0,0,0,0,0,0,0,0,0,0,0,0,0,0,0,0],"split_type":[0,0,0,0,0,0,0,0,0,0,0,0,0,0,0,0,0,0,0,0,0,0,0,0,0,0,0,0,0,0,0],"sum_hessian":[1.66172E6,1.609899E6,5.1821E4,1.441248E6,1.68651E5,3.2801E4,1.902E4,1.343991E6,9.7257E4,1.22949E5,4.5702E4,2.8579E4,4.222E3,3.732E3,1.5288E4,6.16267E5,7.27724E5,3.8017E4,5.924E4,6.4872E4,5.8077E4,1.07E2,4.5595E4,2.5379E4,3.2E3,3.934E3,2.88E2,1.573E3,2.159E3,1.3642E4,1.646E3],"tree_param":{"num_deleted":"0","num_feature":"4","num_nodes":"31","size_leaf_vector":"1"}},{"base_weights":[5.239004E-4,-2.5885457E-1,1.0820626E1,-5.303707E-1,2.2937226E0,8.389187E0,1.5656875E1,5.916183E0,-5.6086606E-1,1.7288321E0,3.6655862E0,6.709523E0,1.0101896E1,6.368756E0,1.9267303E1,2.6649103E-1,-1.1939767E-1,-2.8821507E-2,1.824905E-2,6.1601244E-2,9.9518806E-2,1.404231E-1,1.9513182E-1,2.7130684E-1,3.281024E-1,1.9537981E-1,4.6785858E-1,3.16338E-1,2.7900094E-1,7.5824416E-1,1.0454539E0],"categories":[],"categories_nodes":[],"categories_segments":[],"categories_sizes":[],"default_left":[0,0,0,0,0,0,0,0,0,0,0,0,0,0,0,0,0,0,0,0,0,0,0,0,0,0,0,0,0,0,0],"id":30,"left_children":[1,3,5,7,9,11,13,15,17,19,21,23,25,27,29,-1,-1,-1,-1,-1,-1,-1,-1,-1,-1,-1,-1,-1,-1,-1,-1],"loss_changes":[4.660858E6,1.124055E6,4.57048E5,2.8819025E5,1.20832E5,7.4366E4,4.3602175E5,2.932375E3,1.1923025E5,1.9277156E4,1.6669E4,5.23525E3,2.7181875E4,2.7582812E2,8.8441E4,0E0,0E0,0E0,0E0,0E0,0E0,0E0,0E0,0E0,0E0,0E0,0E0,0E0,0E0,0E0,0E0],"parents":[2147483647,0,0,1,1,2,2,3,3,4,4,5,5,6,6,7,7,8,8,9,9,10,10,11,11,12,12,13,13,14,14],"right_children":[2,4,6,8,10,12,14,16,18,20,22,24,26,28,30,-1,-1,-1,-1,-1,-1,-1,-1,-1,-1,-1,-1,-1,-1,-1,-1],"split_conditions":[2.732245E1,2.5779135E1,3.0464207E1,1E0,2.6396395E1,2.8297348E1,1E0,2.5696808E1,2.5498692E1,2.6059948E1,2.6740421E1,2.77156E1,1E0,3.2046787E1,3.2046787E1,2.6649103E-1,-1.1939767E-1,-2.8821507E-2,1.824905E-2,6.1601244E-2,9.9518806E-2,1.404231E-1,1.9513182E-1,2.7130684E-1,3.281024E-1,1.9537981E-1,4.6785858E-1,3.16338E-1,2.7900094E-1,7.5824416E-1,1.0454539E0],"split_indices":[0,0,0,2,0,0,2,0,0,0,0,0,2,0,0,0,0,0,0,0,0,0,0,0,0,0,0,0,0,0,0],"split_type":[0,0,0,0,0,0,0,0,0,0,0,0,0,0,0,0,0,0,0,0,0,0,0,0,0,0,0,0,0,0,0],"sum_hessian":[1.660734E6,1.621856E6,3.8878E4,1.465927E6,1.55929E5,2.5873E4,1.3005E4,6.901E3,1.459026E6,1.10451E5,4.5478E4,1.3065E4,1.2808E4,3.641E3,9.364E3,6.862E3,3.9E1,1.342294E6,1.16732E5,6.4922E4,4.5529E4,2.6088E4,1.939E4,6.531E3,6.534E3,7.8E2,1.2028E4,5.29E2,3.112E3,6.026E3,3.338E3],"tree_param":{"num_deleted":"0","num_feature":"4","num_nodes":"31","size_leaf_vector":"1"}},{"base_weights":[3.192807E-3,-2.4565434E-1,1.0313604E1,-5.0985986E-1,2.135005E0,8.059438E0,1.4798607E1,2.7329814E-1,-5.3918326E-1,1.6032933E0,3.510115E0,6.399811E0,9.744363E0,5.5695543E0,1.8446184E1,-2.7433416E-2,1.6519131E-2,5.280486E-2,9.0447016E-2,1.3451138E-1,1.8659621E-1,2.6052952E-1,3.1110036E-1,2.4503839E-1,4.4785145E-1,1.9765724E-1,2.576241E-1,7.2586393E-1,1.0007889E0],"categories":[],"categories_nodes":[],"categories_segments":[],"categories_sizes":[],"default_left":[0,0,0,0,0,0,0,0,0,0,0,0,0,0,0,0,0,0,0,0,0,0,0,0,0,0,0,0,0],"id":31,"left_children":[1,3,5,7,9,11,13,-1,15,17,19,21,23,25,27,-1,-1,-1,-1,-1,-1,-1,-1,-1,-1,-1,-1,-1,-1],"loss_changes":[4.2639055E6,1.0206599E6,3.958365E5,2.8386556E5,1.1851494E5,7.2830125E4,4.4085775E5,0E0,9.9018E4,2.0747406E4,1.503025E4,4.167375E3,1.5410125E4,8.132344E2,8.1267E4,0E0,0E0,0E0,0E0,0E0,0E0,0E0,0E0,0E0,0E0,0E0,0E0,0E0,0E0],"parents":[2147483647,0,0,1,1,2,2,3,3,4,4,5,5,6,6,8,8,9,9,10,10,11,11,12,12,13,13,14,14],"right_children":[2,4,6,8,10,12,14,-1,16,18,20,22,24,26,28,-1,-1,-1,-1,-1,-1,-1,-1,-1,-1,-1,-1,-1,-1],"split_conditions":[2.732245E1,2.5757513E1,3.0464207E1,2.5E1,2.6396395E1,2.8297348E1,1E0,2.7329814E-1,2.5498692E1,2.5991842E1,2.6740421E1,2.77156E1,1E0,3.2046787E1,3.2046787E1,-2.7433416E-2,1.6519131E-2,5.280486E-2,9.0447016E-2,1.3451138E-1,1.8659621E-1,2.6052952E-1,3.1110036E-1,2.4503839E-1,4.4785145E-1,1.9765724E-1,2.576241E-1,7.2586393E-1,1.0007889E0],"split_indices":[0,0,0,0,0,0,2,0,0,0,0,0,2,0,0,0,0,0,0,0,0,0,0,0,0,0,0,0,0],"split_type":[0,0,0,0,0,0,0,0,0,0,0,0,0,0,0,0,0,0,0,0,0,0,0,0,0,0,0,0,0],"sum_hessian":[1.661875E6,1.622711E6,3.9164E4,1.460613E6,1.62098E5,2.6066E4,1.3098E4,6.433E3,1.45418E6,1.16899E5,4.5199E4,1.3134E4,1.2932E4,3.711E3,9.387E3,1.34346E6,1.1072E5,5.8458E4,5.8441E4,2.5854E4,1.9345E4,6.551E3,6.583E3,8.01E2,1.2131E4,5.49E2,3.162E3,6.038E3,3.349E3],"tree_param":{"num_deleted":"0","num_feature":"4","num_nodes":"29","size_leaf_vector":"1"}},{"base_weights":[-8.005675E-4,-2.6003563E-1,9.265007E0,-5.144277E-1,2.0155091E0,5.5646853E0,1.0483483E1,-6.511591E-1,-6.302473E-2,1.4524412E0,3.2146215E0,-5.68589E-2,4.3827766E-1,6.905518E0,1.5288887E1,-3.503181E-2,-2.1752836E-2,-1.0070825E-2,2.415912E-2,4.793939E-2,8.0011696E-2,1.2252185E-1,1.7865247E-1,1.0962774E-1,-2.5860793E-3,2.4681698E-1,3.3922654E-1,6.274264E-1,1.1193631E0],"categories":[],"categories_nodes":[],"categories_segments":[],"categories_sizes":[],"default_left":[0,0,0,0,0,0,0,0,0,0,0,0,0,0,0,0,0,0,0,0,0,0,0,0,0,0,0,0,0],"id":32,"left_children":[1,3,5,7,9,11,13,15,17,19,21,23,-1,25,27,-1,-1,-1,-1,-1,-1,-1,-1,-1,-1,-1,-1,-1,-1],"loss_changes":[3.9892258E6,9.3522775E5,2.0373775E5,8.968844E4,1.09679375E5,2.673182E5,5.8450975E5,2.4364312E4,3.313003E4,1.4196891E4,1.9208438E4,1.2610786E1,0E0,1.8472812E4,1.75976E5,0E0,0E0,0E0,0E0,0E0,0E0,0E0,0E0,0E0,0E0,0E0,0E0,0E0,0E0],"parents":[2147483647,0,0,1,1,2,2,3,3,4,4,5,5,6,6,7,7,8,8,9,9,10,10,11,11,13,13,14,14],"right_children":[2,4,6,8,10,12,14,16,18,20,22,24,-1,26,28,-1,-1,-1,-1,-1,-1,-1,-1,-1,-1,-1,-1,-1,-1],"split_conditions":[2.3273921E-1,7.552329E-2,1E0,3.4788154E-2,1.3313787E-1,4.6168155E2,4.3124098E-1,3.0955815E-4,5.6739204E-2,9.577852E-2,1.736127E-1,7.7039504E-1,4.3827766E-1,2.7297693E-1,7.7039504E-1,-3.503181E-2,-2.1752836E-2,-1.0070825E-2,2.415912E-2,4.793939E-2,8.0011696E-2,1.2252185E-1,1.7865247E-1,1.0962774E-1,-2.5860793E-3,2.4681698E-1,3.3922654E-1,6.274264E-1,1.1193631E0],"split_indices":[1,1,2,1,1,1,1,1,1,1,1,1,0,1,1,0,0,0,0,0,0,0,0,0,0,0,0,0,0],"split_type":[0,0,0,0,0,0,0,0,0,0,0,0,0,0,0,0,0,0,0,0,0,0,0,0,0,0,0,0,0],"sum_hessian":[1.660776E6,1.615577E6,4.5199E4,1.453127E6,1.6245E5,1.1198E4,3.4001E4,1.115299E6,3.37828E5,1.10544E5,5.1906E4,4.819E3,6.379E3,1.9491E4,1.451E4,6.16177E5,4.99122E5,2.66223E5,7.1605E4,5.214E4,5.8404E4,3.2411E4,1.9495E4,1E0,4.818E3,6.486E3,1.3005E4,1.2873E4,1.637E3],"tree_param":{"num_deleted":"0","num_feature":"4","num_nodes":"29","size_leaf_vector":"1"}},{"base_weights":[1.7201288E-3,-2.486138E-1,8.874433E0,-4.923757E-1,1.9322267E0,5.4039207E0,1.0027595E1,-6.443741E-1,-1.2059804E-1,1.3977959E0,3.0653243E0,-1.7166048E-1,4.2814162E-1,6.584544E0,1.4587689E1,2.3588906E-1,-2.9004687E-2,-1.1221704E-2,2.3272926E-2,4.7766197E-2,7.8956686E-2,1.1687241E-1,1.703231E-1,1.07179046E-1,-7.714168E-3,2.6470035E-1,3.530929E-1,5.970422E-1,1.0700449E0],"categories":[],"categories_nodes":[],"categories_segments":[],"categories_sizes":[],"default_left":[0,0,0,0,0,0,0,0,0,0,0,0,0,0,0,0,0,0,0,0,0,0,0,0,0,0,0,0,0],"id":33,"left_children":[1,3,5,7,9,11,13,15,17,19,21,23,-1,25,27,-1,-1,-1,-1,-1,-1,-1,-1,-1,-1,-1,-1,-1,-1],"loss_changes":[3.6882312E6,8.5851675E5,1.822955E5,8.208503E4,9.8316E4,2.6489656E5,5.3685025E5,2.9896469E4,3.531959E4,1.3397172E4,1.7456406E4,1.3194199E1,0E0,1.6904188E4,1.6817825E5,0E0,0E0,0E0,0E0,0E0,0E0,0E0,0E0,0E0,0E0,0E0,0E0,0E0,0E0],"parents":[2147483647,0,0,1,1,2,2,3,3,4,4,5,5,6,6,7,7,8,8,9,9,10,10,11,11,13,13,14,14],"right_children":[2,4,6,8,10,12,14,16,18,20,22,24,-1,26,28,-1,-1,-1,-1,-1,-1,-1,-1,-1,-1,-1,-1,-1,-1],"split_conditions":[2.3273921E-1,7.552329E-2,1E0,2.9129818E-2,1.3313787E-1,4.6168155E2,4.3124098E-1,1E0,5.6739204E-2,9.893624E-2,1.736127E-1,7.7039504E-1,4.2814162E-1,3.3330688E-1,7.7039504E-1,2.3588906E-1,-2.9004687E-2,-1.1221704E-2,2.3272926E-2,4.7766197E-2,7.8956686E-2,1.1687241E-1,1.703231E-1,1.07179046E-1,-7.714168E-3,2.6470035E-1,3.530929E-1,5.970422E-1,1.0700449E0],"split_indices":[1,1,2,1,1,1,1,2,1,1,1,1,0,1,1,0,0,0,0,0,0,0,0,0,0,0,0,0,0],"split_type":[0,0,0,0,0,0,0,0,0,0,0,0,0,0,0,0,0,0,0,0,0,0,0,0,0,0,0,0,0],"sum_hessian":[1.66051E6,1.614947E6,4.5563E4,1.452586E6,1.62361E5,1.1365E4,3.4198E4,1.031049E6,4.21537E5,1.10327E5,5.2034E4,4.87E3,6.495E3,1.9487E4,1.4711E4,8.5E2,1.030199E6,3.50241E5,7.1296E4,5.8412E4,5.1915E4,3.2504E4,1.953E4,1E0,4.869E3,1.2998E4,6.489E3,1.3014E4,1.697E3],"tree_param":{"num_deleted":"0","num_feature":"4","num_nodes":"29","size_leaf_vector":"1"}},{"base_weights":[-1.4000587E-3,-2.1736304E-1,8.975876E0,-4.4214752E-1,1.9009777E0,6.9347725E0,1.3054258E1,4.958712E0,-4.673543E-1,1.426822E0,3.0593166E0,5.498295E0,8.4020815E0,5.133872E0,1.6169468E1,2.2501652E-1,8.438011E-2,-2.400633E-2,1.5106004E-2,5.0626155E-2,8.249496E-2,1.2239256E-1,1.7259035E-1,1.0454853E-1,2.4921498E-1,2.1512263E-1,3.8563916E-1,1.8720417E-1,2.3665221E-1,6.363351E-1,8.786529E-1],"categories":[],"categories_nodes":[],"categories_segments":[],"categories_sizes":[],"default_left":[0,0,0,0,0,0,0,0,0,0,0,0,0,0,0,0,0,0,0,0,0,0,0,0,0,0,0,0,0,0,0],"id":34,"left_children":[1,3,5,7,9,11,13,15,17,19,21,23,25,27,29,-1,-1,-1,-1,-1,-1,-1,-1,-1,-1,-1,-1,-1,-1,-1,-1],"loss_changes":[3.2211555E6,7.7254975E5,3.2481075E5,1.9968694E5,8.548106E4,5.4785E4,3.2109425E5,1.6276406E3,8.235031E4,1.36088125E4,1.1605844E4,3.3236562E3,1.0592E4,5.449922E2,6.265075E4,0E0,0E0,0E0,0E0,0E0,0E0,0E0,0E0,0E0,0E0,0E0,0E0,0E0,0E0,0E0,0E0],"parents":[2147483647,0,0,1,1,2,2,3,3,4,4,5,5,6,6,7,7,8,8,9,9,10,10,11,11,12,12,13,13,14,14],"right_children":[2,4,6,8,10,12,14,16,18,20,22,24,26,28,30,-1,-1,-1,-1,-1,-1,-1,-1,-1,-1,-1,-1,-1,-1,-1,-1],"split_conditions":[2.732245E1,2.5779135E1,3.0464207E1,1E0,2.6396395E1,2.8297348E1,1E0,2.5318117E1,2.5498692E1,2.6059948E1,2.6876637E1,1E0,1E0,3.2046787E1,3.2046787E1,2.2501652E-1,8.438011E-2,-2.400633E-2,1.5106004E-2,5.0626155E-2,8.249496E-2,1.2239256E-1,1.7259035E-1,1.0454853E-1,2.4921498E-1,2.1512263E-1,3.8563916E-1,1.8720417E-1,2.3665221E-1,6.363351E-1,8.786529E-1],"split_indices":[0,0,0,2,0,0,2,0,0,0,0,2,2,0,0,0,0,0,0,0,0,0,0,0,0,0,0,0,0,0,0],"split_type":[0,0,0,0,0,0,0,0,0,0,0,0,0,0,0,0,0,0,0,0,0,0,0,0,0,0,0,0,0,0,0],"sum_hessian":[1.66145E6,1.622421E6,3.9029E4,1.466777E6,1.55644E5,2.6013E4,1.3016E4,6.813E3,1.459964E6,1.10439E5,4.5205E4,1.3147E4,1.2866E4,3.675E3,9.341E3,6.643E3,1.7E2,1.343195E6,1.16769E5,6.4995E4,4.5444E4,3.2352E4,1.2853E4,3.27E2,1.282E4,7.78E2,1.2088E4,5.47E2,3.128E3,6.029E3,3.312E3],"tree_param":{"num_deleted":"0","num_feature":"4","num_nodes":"31","size_leaf_vector":"1"}},{"base_weights":[1.5363684E-3,-2.2600502E-1,8.10988E0,-4.5320866E-1,1.7181188E0,5.995168E0,9.695827E0,-5.906804E-1,-1.1233668E-1,1.2423143E0,2.7938344E0,2.1176349E-1,6.614752E0,4.9878745E0,1.333355E1,2.1453083E-1,-2.6581423E-2,-1.0029295E-2,1.907962E-2,4.0703535E-2,7.035114E-2,1.06773876E-1,1.5486762E-1,2.6798183E-1,3.2330537E-1,-2.2815233E-2,4.0716943E-1,5.453817E-1,9.862501E-1],"categories":[],"categories_nodes":[],"categories_segments":[],"categories_sizes":[],"default_left":[0,0,0,0,0,0,0,0,0,0,0,0,0,0,0,0,0,0,0,0,0,0,0,0,0,0,0,0,0],"id":35,"left_children":[1,3,5,7,9,11,13,15,17,19,21,-1,23,25,27,-1,-1,-1,-1,-1,-1,-1,-1,-1,-1,-1,-1,-1,-1],"loss_changes":[3.062581E6,7.132062E5,1.51907E5,6.774525E4,8.647181E4,1.50683125E4,4.4334875E5,2.41295E4,2.5139572E4,1.2897125E4,1.40660625E4,0E0,4.9405E3,2.56111E5,1.4342125E5,0E0,0E0,0E0,0E0,0E0,0E0,0E0,0E0,0E0,0E0,0E0,0E0,0E0,0E0],"parents":[2147483647,0,0,1,1,2,2,3,3,4,4,5,5,6,6,7,7,8,8,9,9,10,10,12,12,13,13,14,14],"right_children":[2,4,6,8,10,12,14,16,18,20,22,-1,24,26,28,-1,-1,-1,-1,-1,-1,-1,-1,-1,-1,-1,-1,-1,-1],"split_conditions":[2.3273921E-1,7.343715E-2,4.3124098E-1,2.9129818E-2,1.3313787E-1,2.7297693E-1,1E0,1E0,5.5414807E-2,9.577852E-2,1.736127E-1,2.1176349E-1,3.3330688E-1,4.6168155E2,7.7039504E-1,2.1453083E-1,-2.6581423E-2,-1.0029295E-2,1.907962E-2,4.0703535E-2,7.035114E-2,1.06773876E-1,1.5486762E-1,2.6798183E-1,3.2330537E-1,-2.2815233E-2,4.0716943E-1,5.453817E-1,9.862501E-1],"split_indices":[1,1,1,1,1,1,2,2,1,1,1,0,1,1,1,0,0,0,0,0,0,0,0,0,0,0,0,0,0],"split_type":[0,0,0,0,0,0,0,0,0,0,0,0,0,0,0,0,0,0,0,0,0,0,0,0,0,0,0,0,0],"sum_hessian":[1.659948E6,1.614638E6,4.531E4,1.445686E6,1.68952E5,1.942E4,2.589E4,1.030208E6,4.15478E5,1.17141E5,5.1811E4,6.422E3,1.2998E4,1.1286E4,1.4604E4,8.28E2,1.02938E6,3.43957E5,7.1521E4,5.8689E4,5.8452E4,3.2385E4,1.9426E4,6.538E3,6.46E3,4.839E3,6.447E3,1.2941E4,1.663E3],"tree_param":{"num_deleted":"0","num_feature":"4","num_nodes":"29","size_leaf_vector":"1"}},{"base_weights":[-4.2667193E-4,-2.4850968E-1,6.8367996E0,-4.674642E-1,1.2806561E0,4.8762436E0,1.0870553E1,-6.7580986E-1,-3.0390808E-1,8.61087E-1,2.1604598E0,4.390006E0,8.84337E0,5.0784607E0,1.2321286E1,-4.6681082E-1,-3.009056E-2,-1.6857073E-2,-4.822088E-3,2.715051E-2,5.353103E-2,-4.313039E-1,9.7401E-2,2.1788993E-1,-1.7240908E-2,4.0649167E-1,3.0967462E-1,9.190329E-3,3.870784E-1,3.7765056E-1,6.621755E-1],"categories":[],"categories_nodes":[],"categories_segments":[],"categories_sizes":[],"default_left":[0,0,0,0,0,0,0,0,0,0,0,0,0,0,0,0,0,0,0,0,0,0,0,0,0,0,0,0,0,0,0],"id":36,"left_children":[1,3,5,7,9,11,13,15,17,19,21,23,25,27,29,-1,-1,-1,-1,-1,-1,-1,-1,-1,-1,-1,-1,-1,-1,-1,-1],"loss_changes":[2.819191E6,5.370041E5,4.60176E5,4.7808094E4,7.415325E4,7.550525E4,1.5986775E5,1.3471719E4,1.131093E4,1.1618453E4,1.52370625E4,8.122344E4,2.028E3,6.6647445E4,1.47123E5,0E0,0E0,0E0,0E0,0E0,0E0,0E0,0E0,0E0,0E0,0E0,0E0,0E0,0E0,0E0,0E0],"parents":[2147483647,0,0,1,1,2,2,3,3,4,4,5,5,6,6,7,7,8,8,9,9,10,10,11,11,12,12,13,13,14,14],"right_children":[2,4,6,8,10,12,14,16,18,20,22,24,26,28,30,-1,-1,-1,-1,-1,-1,-1,-1,-1,-1,-1,-1,-1,-1,-1,-1],"split_conditions":[1.8741558E-1,2.5612001E1,2.919234E1,3.0955815E-4,2.6138481E1,4.6168155E2,1E0,0E0,2.5395866E1,2.5849646E1,0E0,7.7039504E-1,2.6543016E1,4.6168155E2,3.0464207E1,-4.6681082E-1,-3.009056E-2,-1.6857073E-2,-4.822088E-3,2.715051E-2,5.353103E-2,-4.313039E-1,9.7401E-2,2.1788993E-1,-1.7240908E-2,4.0649167E-1,3.0967462E-1,9.190329E-3,3.870784E-1,3.7765056E-1,6.621755E-1],"split_indices":[1,0,0,1,0,1,2,1,0,0,1,1,0,1,0,0,0,0,0,0,0,0,0,0,0,0,0,0,0,0,0],"split_type":[0,0,0,0,0,0,0,0,0,0,0,0,0,0,0,0,0,0,0,0,0,0,0,0,0,0,0,0,0,0,0],"sum_hessian":[1.662061E6,1.603867E6,5.8194E4,1.402981E6,2.00886E5,3.9162E4,1.9032E4,6.17006E5,7.85975E5,1.36021E5,6.4865E4,3.4888E4,4.274E3,3.813E3,1.5219E4,1.4E2,6.16866E5,5.71726E5,2.14249E5,7.7672E4,5.8349E4,1.08E2,6.4757E4,3.1657E4,3.231E3,3.766E3,5.08E2,1.617E3,2.196E3,5.979E3,9.24E3],"tree_param":{"num_deleted":"0","num_feature":"4","num_nodes":"31","size_leaf_vector":"1"}},{"base_weights":[-6.953471E-5,-2.0809026E-1,7.386885E0,-4.0770087E-1,1.6650116E0,5.7921214E0,1.1498431E1,-5.492679E-1,-9.482806E-2,1.3261458E0,2.9482129E0,4.8195243E0,7.297964E0,4.168194E0,1.4222606E1,-2.881753E-2,-1.774756E-2,-9.550984E-3,1.9147232E-2,2.212385E0,5.8979977E-2,-4.0035975E-1,1.3349105E-1,1.7501236E-1,3.703974E-1,3.3667082E-1,1.4695928E-1,5.254899E-3,3.2186976E-1,5.7522553E-1,9.1402274E-1],"categories":[],"categories_nodes":[],"categories_segments":[],"categories_sizes":[],"default_left":[0,0,0,0,0,0,0,0,0,0,0,0,0,0,0,0,0,0,0,0,0,0,0,0,0,0,0,0,0,0,0],"id":37,"left_children":[1,3,5,7,9,11,13,15,17,19,21,23,25,27,29,-1,-1,-1,-1,-1,-1,-1,-1,-1,-1,-1,-1,-1,-1,-1,-1],"loss_changes":[2.5531128E6,6.042026E5,2.983205E5,6.4682844E4,6.766747E4,4.798975E4,2.5388462E5,1.4641E4,2.8330219E4,3.4848062E4,1.5505125E4,6.235903E4,1.2268875E4,4.2400332E4,7.7588625E4,0E0,0E0,0E0,0E0,0E0,0E0,0E0,0E0,0E0,0E0,0E0,0E0,0E0,0E0,0E0,0E0],"parents":[2147483647,0,0,1,1,2,2,3,3,4,4,5,5,6,6,7,7,8,8,9,9,10,10,11,11,12,12,13,13,14,14],"right_children":[2,4,6,8,10,12,14,16,18,20,22,24,26,28,30,-1,-1,-1,-1,-1,-1,-1,-1,-1,-1,-1,-1,-1,-1,-1,-1],"split_conditions":[2.3273921E-1,2.5779135E1,3.0464207E1,2.7364522E-2,2.6543016E1,2.8297348E1,1E0,3.0955815E-4,2.5555798E1,3.0955815E-4,0E0,4.6168155E2,5.7589334E-1,4.6168155E2,7.7039504E-1,-2.881753E-2,-1.774756E-2,-9.550984E-3,1.9147232E-2,2.212385E0,5.8979977E-2,-4.0035975E-1,1.3349105E-1,1.7501236E-1,3.703974E-1,3.3667082E-1,1.4695928E-1,5.254899E-3,3.2186976E-1,5.7522553E-1,9.1402274E-1],"split_indices":[1,0,0,1,0,0,2,1,0,1,1,1,1,1,1,0,0,0,0,0,0,0,0,0,0,0,0,0,0,0,0],"split_type":[0,0,0,0,0,0,0,0,0,0,0,0,0,0,0,0,0,0,0,0,0,0,0,0,0,0,0,0,0,0,0],"sum_hessian":[1.661489E6,1.615983E6,4.5506E4,1.460358E6,1.55625E5,3.279E4,1.2716E4,1.005427E6,4.54931E5,1.23115E5,3.251E4,1.9925E4,1.2865E4,3.446E3,9.27E3,6.16684E5,3.88743E5,3.70681E5,8.425E4,1.4E1,1.23101E5,1.08E2,3.2402E4,1.5818E4,4.107E3,1.2142E4,7.23E2,1.477E3,1.969E3,7.627E3,1.643E3],"tree_param":{"num_deleted":"0","num_feature":"4","num_nodes":"31","size_leaf_vector":"1"}},{"base_weights":[1.7264797E-3,-1.977308E-1,7.0899844E0,-3.956646E-1,1.500657E0,5.5796905E0,1.0968031E1,-5.43839E-1,-1.46295E-1,1.034424E0,2.3775537E0,4.6429276E0,7.013856E0,3.906715E0,1.3561811E1,-4.2875665E-1,-2.4231136E-2,-1.0089601E-2,1.6819965E-2,1.6287562E0,4.6023488E-2,-4.3931752E-1,1.0728409E-1,1.6389751E-1,3.7416026E-1,3.2113346E-1,1.841668E-1,-7.0660287E-3,3.0531687E-1,5.503406E-1,8.723088E-1],"categories":[],"categories_nodes":[],"categories_segments":[],"categories_sizes":[],"default_left":[0,0,0,0,0,0,0,0,0,0,0,0,0,0,0,0,0,0,0,0,0,0,0,0,0,0,0,0,0,0,0],"id":38,"left_children":[1,3,5,7,9,11,13,15,17,19,21,23,25,27,29,-1,-1,-1,-1,-1,-1,-1,-1,-1,-1,-1,-1,-1,-1,-1,-1],"loss_changes":[2.3489048E6,5.432271E5,2.6626225E5,5.347678E4,6.895544E4,4.3936562E4,2.3335975E5,1.17235625E4,2.2437629E4,1.6315117E4,1.7177312E4,7.1960625E4,6.500625E3,4.0762312E4,6.8830875E4,0E0,0E0,0E0,0E0,0E0,0E0,0E0,0E0,0E0,0E0,0E0,0E0,0E0,0E0,0E0,0E0],"parents":[2147483647,0,0,1,1,2,2,3,3,4,4,5,5,6,6,7,7,8,8,9,9,10,10,11,11,12,12,13,13,14,14],"right_children":[2,4,6,8,10,12,14,16,18,20,22,24,26,28,30,-1,-1,-1,-1,-1,-1,-1,-1,-1,-1,-1,-1,-1,-1,-1,-1],"split_conditions":[2.3273921E-1,2.5736559E1,3.0464207E1,2.0743756E-2,2.627906E1,2.8297348E1,1E0,0E0,2.5555798E1,3.0955815E-4,0E0,4.6168155E2,5.7589334E-1,4.6168155E2,7.7039504E-1,-4.2875665E-1,-2.4231136E-2,-1.0089601E-2,1.6819965E-2,1.6287562E0,4.6023488E-2,-4.3931752E-1,1.0728409E-1,1.6389751E-1,3.7416026E-1,3.2113346E-1,1.841668E-1,-7.0660287E-3,3.0531687E-1,5.503406E-1,8.723088E-1],"split_indices":[1,0,0,1,0,0,2,1,0,1,1,1,1,1,1,0,0,0,0,0,0,0,0,0,0,0,0,0,0,0,0],"split_type":[0,0,0,0,0,0,0,0,0,0,0,0,0,0,0,0,0,0,0,0,0,0,0,0,0,0,0,0,0,0,0],"sum_hessian":[1.661405E6,1.615935E6,4.547E4,1.447268E6,1.68667E5,3.2727E4,1.2743E4,9.07835E5,5.39433E5,1.1012E5,5.8547E4,1.9799E4,1.2928E4,3.424E3,9.319E3,1.42E2,9.07693E5,4.68186E5,7.1247E4,1.2E1,1.10108E5,1.14E2,5.8433E4,1.5703E4,4.096E3,1.219E4,7.38E2,1.434E3,1.99E3,7.715E3,1.604E3],"tree_param":{"num_deleted":"0","num_feature":"4","num_nodes":"31","size_leaf_vector":"1"}},{"base_weights":[3.604392E-3,-1.8776843E-1,6.8140984E0,-4.0418875E-1,1.2247456E0,4.1483264E0,7.6996503E0,-5.8534116E-1,-2.620267E-1,7.76021E-1,2.1188967E0,-4.0196496E-1,3.382246E-1,5.06113E0,1.1206103E1,2.583737E-1,-2.6543887E-2,-1.4826988E-2,-4.62431E-3,2.560994E-2,5.0531667E-2,7.797513E-2,1.2368983E-1,8.78317E-2,-1.7996743E-2,1.786388E-1,2.5050038E-1,4.5720616E-1,8.302368E-1],"categories":[],"categories_nodes":[],"categories_segments":[],"categories_sizes":[],"default_left":[0,0,0,0,0,0,0,0,0,0,0,0,0,0,0,0,0,0,0,0,0,0,0,0,0,0,0,0,0],"id":39,"left_children":[1,3,5,7,9,11,13,15,17,19,21,23,-1,25,27,-1,-1,-1,-1,-1,-1,-1,-1,-1,-1,-1,-1,-1,-1],"loss_changes":[2.1672412E6,4.9442953E5,1.0725625E5,3.611839E4,8.621656E4,1.765429E5,3.1556062E5,3.473033E4,8.703617E3,1.030132E4,1.7421188E4,1.1057739E1,0E0,1.1275656E4,1.04814E5,0E0,0E0,0E0,0E0,0E0,0E0,0E0,0E0,0E0,0E0,0E0,0E0,0E0,0E0],"parents":[2147483647,0,0,1,1,2,2,3,3,4,4,5,5,6,6,7,7,8,8,9,9,10,10,11,11,13,13,14,14],"right_children":[2,4,6,8,10,12,14,16,18,20,22,24,-1,26,28,-1,-1,-1,-1,-1,-1,-1,-1,-1,-1,-1,-1,-1,-1],"split_conditions":[2.3273921E-1,6.103532E-2,1E0,3.0955815E-4,1.1776452E-1,4.6168155E2,4.3124098E-1,1E0,3.781282E-2,8.998487E-2,1.6279353E-1,7.7039504E-1,3.382246E-1,2.7297693E-1,7.7039504E-1,2.583737E-1,-2.6543887E-2,-1.4826988E-2,-4.62431E-3,2.560994E-2,5.0531667E-2,7.797513E-2,1.2368983E-1,8.78317E-2,-1.7996743E-2,1.786388E-1,2.5050038E-1,4.5720616E-1,8.302368E-1],"split_indices":[1,1,2,1,1,1,1,2,1,1,1,1,0,1,1,0,0,0,0,0,0,0,0,0,0,0,0,0,0],"split_type":[0,0,0,0,0,0,0,0,0,0,0,0,0,0,0,0,0,0,0,0,0,0,0,0,0,0,0,0,0],"sum_hessian":[1.66283E6,1.617383E6,4.5447E4,1.402498E6,2.14885E5,1.1334E4,3.4113E4,6.1668E5,7.85818E5,1.43082E5,7.1803E4,4.866E3,6.468E3,1.9467E4,1.4646E4,8.54E2,6.15826E5,5.45398E5,2.4042E5,9.1084E4,5.1998E4,4.5603E4,2.62E4,1E0,4.865E3,6.614E3,1.2853E4,1.2944E4,1.702E3],"tree_param":{"num_deleted":"0","num_feature":"4","num_nodes":"29","size_leaf_vector":"1"}},{"base_weights":[-6.591972E-4,-2.0685683E-1,5.6471534E0,-3.8953286E-1,1.0674819E0,4.3973966E0,1.0098898E1,-5.650556E-1,-2.5171295E-1,6.8712E-1,1.7564642E0,3.636872E0,6.3440137E0,3.5943973E0,1.2457382E1,-4.0776402E-1,-2.5152685E-2,-1.412688E-2,-4.19565E-3,2.2334533E-2,4.3245733E-2,-3.9426103E-1,7.918717E-2,1.4037332E-1,3.1502196E-1,2.9128382E-1,1.4923494E-1,6.813671E-3,2.73622E-1,5.0569475E-1,7.916603E-1],"categories":[],"categories_nodes":[],"categories_segments":[],"categories_sizes":[],"default_left":[0,0,0,0,0,0,0,0,0,0,0,0,0,0,0,0,0,0,0,0,0,0,0,0,0,0,0,0,0,0,0],"id":40,"left_children":[1,3,5,7,9,11,13,15,17,19,21,23,25,27,29,-1,-1,-1,-1,-1,-1,-1,-1,-1,-1,-1,-1,-1,-1,-1,-1],"loss_changes":[1.9350072E6,3.7317488E5,3.2557038E5,3.3916438E4,5.2669484E4,6.7632E4,1.967465E5,1.0633578E4,7.9953516E3,6.8085E3,1.2221094E4,5.548622E4,6.7774375E3,2.9743848E4,5.6164625E4,0E0,0E0,0E0,0E0,0E0,0E0,0E0,0E0,0E0,0E0,0E0,0E0,0E0,0E0,0E0,0E0],"parents":[2147483647,0,0,1,1,2,2,3,3,4,4,5,5,6,6,7,7,8,8,9,9,10,10,11,11,12,12,13,13,14,14],"right_children":[2,4,6,8,10,12,14,16,18,20,22,24,26,28,30,-1,-1,-1,-1,-1,-1,-1,-1,-1,-1,-1,-1,-1,-1,-1,-1],"split_conditions":[1.8741558E-1,2.5612001E1,3.0464207E1,3.0955815E-4,2.6097189E1,2.8297348E1,1E0,0E0,3.867201E-2,2.5849646E1,0E0,4.6168155E2,5.7589334E-1,4.6168155E2,7.7039504E-1,-4.0776402E-1,-2.5152685E-2,-1.412688E-2,-4.19565E-3,2.2334533E-2,4.3245733E-2,-3.9426103E-1,7.918717E-2,1.4037332E-1,3.1502196E-1,2.9128382E-1,1.4923494E-1,6.813671E-3,2.73622E-1,5.0569475E-1,7.916603E-1],"split_indices":[1,0,0,1,0,0,2,1,1,0,1,1,1,1,1,0,0,0,0,0,0,0,0,0,0,0,0,0,0,0,0],"split_type":[0,0,0,0,0,0,0,0,0,0,0,0,0,0,0,0,0,0,0,0,0,0,0,0,0,0,0,0,0,0,0],"sum_hessian":[1.661568E6,1.603043E6,5.8525E4,1.402059E6,2.00984E5,4.5698E4,1.2827E4,6.16677E5,7.85382E5,1.29496E5,7.1488E4,3.2862E4,1.2836E4,3.414E3,9.413E3,1.44E2,6.16533E5,5.57457E5,2.27925E5,7.772E4,5.1776E4,1.08E2,7.138E4,2.8706E4,4.156E3,1.2123E4,7.13E2,1.447E3,1.967E3,7.743E3,1.67E3],"tree_param":{"num_deleted":"0","num_feature":"4","num_nodes":"31","size_leaf_vector":"1"}},{"base_weights":[-2.9269871E-3,-1.8650872E-1,5.6984735E0,-3.6729E-1,1.0792642E0,4.216996E0,7.192945E0,-5.1931745E-1,-2.222182E-1,7.149539E-1,1.8438634E0,3.2979414E0,5.1396203E0,3.299329E0,1.0197068E1,2.1049751E-1,-2.3489788E-2,-1.20071545E-2,1.3335599E-4,2.061532E-2,4.23E-2,6.835893E-2,1.032239E-1,1.2973876E-1,1.6495551E-1,2.134768E-1,2.4569415E-1,-1.7214382E-2,2.7168965E-1,4.1550255E-1,7.6142466E-1],"categories":[],"categories_nodes":[],"categories_segments":[],"categories_sizes":[],"default_left":[0,0,0,0,0,0,0,0,0,0,0,0,0,0,0,0,0,0,0,0,0,0,0,0,0,0,0,0,0,0,0],"id":41,"left_children":[1,3,5,7,9,11,13,15,17,19,21,23,25,27,29,-1,-1,-1,-1,-1,-1,-1,-1,-1,-1,-1,-1,-1,-1,-1,-1],"loss_changes":[1.7379262E6,3.681005E5,1.146495E5,3.1044266E4,5.5997812E4,2.2041406E4,3.0155925E5,2.3372234E4,7.5526055E3,8.004461E3,9.495125E3,2.0144531E3,1.6614375E3,1.1514604E5,8.91415E4,0E0,0E0,0E0,0E0,0E0,0E0,0E0,0E0,0E0,0E0,0E0,0E0,0E0,0E0,0E0,0E0],"parents":[2147483647,0,0,1,1,2,2,3,3,4,4,5,5,6,6,7,7,8,8,9,9,10,10,11,11,12,12,13,13,14,14],"right_children":[2,4,6,8,10,12,14,16,18,20,22,24,26,28,30,-1,-1,-1,-1,-1,-1,-1,-1,-1,-1,-1,-1,-1,-1,-1,-1],"split_conditions":[2.0584406E-1,6.2585354E-2,4.3124098E-1,5.422422E-3,1.1776452E-1,2.7297693E-1,1E0,1E0,4.5959555E-2,8.222573E-2,1.5386745E-1,2.3273921E-1,3.3330688E-1,4.6168155E2,7.7039504E-1,2.1049751E-1,-2.3489788E-2,-1.20071545E-2,1.3335599E-4,2.061532E-2,4.23E-2,6.835893E-2,1.032239E-1,1.2973876E-1,1.6495551E-1,2.134768E-1,2.4569415E-1,-1.7214382E-2,2.7168965E-1,4.1550255E-1,7.6142466E-1],"split_indices":[1,1,1,1,1,1,2,2,1,1,1,1,1,1,1,0,0,0,0,0,0,0,0,0,0,0,0,0,0,0,0],"split_type":[0,0,0,0,0,0,0,0,0,0,0,0,0,0,0,0,0,0,0,0,0,0,0,0,0,0,0,0,0,0,0],"sum_hessian":[1.660427E6,1.608631E6,5.1796E4,1.407595E6,2.01036E5,2.6013E4,2.5783E4,6.87319E5,7.20276E5,1.36161E5,6.4875E4,1.3034E4,1.2979E4,1.123E4,1.4553E4,8.52E2,6.86467E5,5.96872E5,1.23404E5,6.5059E4,7.1102E4,3.8805E4,2.607E4,6.528E3,6.506E3,6.49E3,6.489E3,4.832E3,6.398E3,1.2871E4,1.682E3],"tree_param":{"num_deleted":"0","num_feature":"4","num_nodes":"31","size_leaf_vector":"1"}},{"base_weights":[-1.2446448E-3,-1.8866786E-1,5.1338787E0,-3.5835248E-1,9.544145E-1,3.9707847E0,9.314459E0,-5.1660454E-1,-2.330291E-1,6.056076E-1,1.6199878E0,3.0025725E0,5.2760506E0,1.1447477E1,3.5321522E0,-3.9108202E-1,-2.2988696E-2,-1.3074874E-2,-4.657734E-3,1.9219106E-2,3.752591E-2,-3.7458503E-1,7.3015645E-2,1.09088995E-1,2.726024E-1,2.4301298E-1,9.054749E-2,4.6469784E-1,7.267076E-1,2.3556823E-2,2.5723046E-1],"categories":[],"categories_nodes":[],"categories_segments":[],"categories_sizes":[],"default_left":[0,0,0,0,0,0,0,0,0,0,0,0,0,0,0,0,0,0,0,0,0,0,0,0,0,0,0,0,0,0,0],"id":42,"left_children":[1,3,5,7,9,11,13,15,17,19,21,23,25,27,29,-1,-1,-1,-1,-1,-1,-1,-1,-1,-1,-1,-1,-1,-1,-1,-1],"loss_changes":[1.5991368E6,3.109304E5,2.8445275E5,2.7682953E4,4.810278E4,5.7833438E4,1.5701788E5,1.018125E4,5.983164E3,5.589129E3,1.0322656E4,4.56575E4,1.03618125E4,4.66935E4,2.295877E4,0E0,0E0,0E0,0E0,0E0,0E0,0E0,0E0,0E0,0E0,0E0,0E0,0E0,0E0,0E0,0E0],"parents":[2147483647,0,0,1,1,2,2,3,3,4,4,5,5,6,6,7,7,8,8,9,9,10,10,11,11,12,12,13,13,14,14],"right_children":[2,4,6,8,10,12,14,16,18,20,22,24,26,28,30,-1,-1,-1,-1,-1,-1,-1,-1,-1,-1,-1,-1,-1,-1,-1,-1],"split_conditions":[1.8741558E-1,2.5597E1,3.0464207E1,3.0955815E-4,2.6097189E1,2.77156E1,1E0,0E0,2.5370165E1,2.5824507E1,0E0,4.6168155E2,5.7589334E-1,7.7039504E-1,4.6168155E2,-3.9108202E-1,-2.2988696E-2,-1.3074874E-2,-4.657734E-3,1.9219106E-2,3.752591E-2,-3.7458503E-1,7.3015645E-2,1.09088995E-1,2.726024E-1,2.4301298E-1,9.054749E-2,4.6469784E-1,7.267076E-1,2.3556823E-2,2.5723046E-1],"split_indices":[1,0,0,1,0,0,3,1,0,0,1,1,1,1,1,0,0,0,0,0,0,0,0,0,0,0,0,0,0,0,0],"split_type":[0,0,0,0,0,0,0,0,0,0,0,0,0,0,0,0,0,0,0,0,0,0,0,0,0,0,0,0,0,0,0],"sum_hessian":[1.66154E6,1.603033E6,5.8507E4,1.39583E6,2.07203E5,4.5774E4,1.2733E4,6.16872E5,7.78958E5,1.35955E5,7.1248E4,2.6282E4,1.9492E4,9.301E3,3.432E3,1.49E2,6.16723E5,5.32347E5,2.46611E5,7.7769E4,5.8186E4,1.02E2,7.1146E4,2.2258E4,4.024E3,1.8556E4,9.36E2,7.646E3,1.655E3,1.461E3,1.971E3],"tree_param":{"num_deleted":"0","num_feature":"4","num_nodes":"31","size_leaf_vector":"1"}},{"base_weights":[5.03839E-4,-1.6983548E-1,5.277849E0,-3.413968E-1,9.464882E-1,3.8310134E0,6.7216997E0,-4.8978987E-1,-2.2383408E-1,6.268706E-1,1.682039E0,3.0229616E0,4.6450825E0,3.3519454E0,9.330231E0,-4.3253863E-1,-2.1703128E-2,-1.23500815E-2,-4.3038656E-3,2.1263514E-2,4.3462522E-2,6.437035E-2,1.0023739E-1,1.18528254E-1,1.5149713E-1,1.9242041E-1,2.226459E-1,-2.0471646E-2,2.775222E-1,3.821144E-1,6.869336E-1],"categories":[],"categories_nodes":[],"categories_segments":[],"categories_sizes":[],"default_left":[0,0,0,0,0,0,0,0,0,0,0,0,0,0,0,0,0,0,0,0,0,0,0,0,0,0,0,0,0,0,0],"id":43,"left_children":[1,3,5,7,9,11,13,15,17,19,21,23,25,27,29,-1,-1,-1,-1,-1,-1,-1,-1,-1,-1,-1,-1,-1,-1,-1,-1],"loss_changes":[1.493728E6,3.0828662E5,1.08513E5,2.4341062E4,5.0410594E4,1.7058812E4,2.2854675E5,2.2487266E4,5.2228633E3,7.8042812E3,8.7945E3,1.7649219E3,1.4579688E3,1.2367988E5,6.8698875E4,0E0,0E0,0E0,0E0,0E0,0E0,0E0,0E0,0E0,0E0,0E0,0E0,0E0,0E0,0E0,0E0],"parents":[2147483647,0,0,1,1,2,2,3,3,4,4,5,5,6,6,7,7,8,8,9,9,10,10,11,11,12,12,13,13,14,14],"right_children":[2,4,6,8,10,12,14,16,18,20,22,24,26,28,30,-1,-1,-1,-1,-1,-1,-1,-1,-1,-1,-1,-1,-1,-1,-1,-1],"split_conditions":[2.0584406E-1,5.952694E-2,4.3124098E-1,3.0955815E-4,1.1776452E-1,2.7297693E-1,1E0,0E0,3.8242858E-2,9.283025E-2,1.6279353E-1,2.3273921E-1,3.3330688E-1,4.6168155E2,7.7039504E-1,-4.3253863E-1,-2.1703128E-2,-1.23500815E-2,-4.3038656E-3,2.1263514E-2,4.3462522E-2,6.437035E-2,1.0023739E-1,1.18528254E-1,1.5149713E-1,1.9242041E-1,2.226459E-1,-2.0471646E-2,2.775222E-1,3.821144E-1,6.869336E-1],"split_indices":[1,1,1,1,1,1,2,1,1,1,1,1,1,1,1,0,0,0,0,0,0,0,0,0,0,0,0,0,0,0,0],"split_type":[0,0,0,0,0,0,0,0,0,0,0,0,0,0,0,0,0,0,0,0,0,0,0,0,0,0,0,0,0,0,0],"sum_hessian":[1.661654E6,1.609698E6,5.1956E4,1.395268E6,2.1443E5,2.5953E4,2.6003E4,6.16761E5,7.78507E5,1.49479E5,6.4951E4,1.3027E4,1.2926E4,1.1347E4,1.4656E4,2.65E2,6.16496E5,5.5106E5,2.27447E5,1.04092E5,4.5387E4,4.5448E4,1.9503E4,6.505E3,6.522E3,6.48E3,6.446E3,4.866E3,6.481E3,1.299E4,1.666E3],"tree_param":{"num_deleted":"0","num_feature":"4","num_nodes":"31","size_leaf_vector":"1"}},{"base_weights":[1.3144558E-3,-1.7142342E-1,4.7596664E0,-3.2632232E-1,8.667482E-1,3.420194E0,6.4379826E0,-4.6853694E-1,-2.1366356E-1,5.4302204E-1,1.4059616E0,2.722309E0,4.4495535E0,3.1495833E0,8.948505E0,-3.888007E-1,-2.076979E-2,-1.1180146E-2,-1.8549328E-3,1.7719986E-2,3.4074195E-2,5.4502618E-2,8.7740086E-2,1.0990939E-1,1.4506485E-1,1.8545161E-1,2.1215704E-1,-2.266336E-2,2.636823E-1,3.662332E-1,6.6119075E-1],"categories":[],"categories_nodes":[],"categories_segments":[],"categories_sizes":[],"default_left":[0,0,0,0,0,0,0,0,0,0,0,0,0,0,0,0,0,0,0,0,0,0,0,0,0,0,0,0,0,0,0],"id":44,"left_children":[1,3,5,7,9,11,13,15,17,19,21,23,25,27,29,-1,-1,-1,-1,-1,-1,-1,-1,-1,-1,-1,-1,-1,-1,-1,-1],"loss_changes":[1.3659956E6,2.5789134E5,1.30853125E5,2.2357812E4,3.6343844E4,2.3248156E4,2.1328838E5,1.8316719E4,4.9061914E3,4.183742E3,8.1023594E3,2.6463281E3,1.1489375E3,1.126345E5,6.4223125E4,0E0,0E0,0E0,0E0,0E0,0E0,0E0,0E0,0E0,0E0,0E0,0E0,0E0,0E0,0E0,0E0],"parents":[2147483647,0,0,1,1,2,2,3,3,4,4,5,5,6,6,7,7,8,8,9,9,10,10,11,11,12,12,13,13,14,14],"right_children":[2,4,6,8,10,12,14,16,18,20,22,24,26,28,30,-1,-1,-1,-1,-1,-1,-1,-1,-1,-1,-1,-1,-1,-1,-1,-1],"split_conditions":[1.8741558E-1,5.952694E-2,4.3124098E-1,3.0955815E-4,1.0572484E-1,2.7297693E-1,1E0,0E0,4.4239137E-2,8.222573E-2,1.5386745E-1,2.3273921E-1,3.3330688E-1,4.6168155E2,7.7039504E-1,-3.888007E-1,-2.076979E-2,-1.1180146E-2,-1.8549328E-3,1.7719986E-2,3.4074195E-2,5.4502618E-2,8.7740086E-2,1.0990939E-1,1.4506485E-1,1.8545161E-1,2.1215704E-1,-2.266336E-2,2.636823E-1,3.662332E-1,6.6119075E-1],"split_indices":[1,1,1,1,1,1,2,1,1,1,1,1,1,1,1,0,0,0,0,0,0,0,0,0,0,0,0,0,0,0,0],"split_type":[0,0,0,0,0,0,0,0,0,0,0,0,0,0,0,0,0,0,0,0,0,0,0,0,0,0,0,0,0,0,0],"sum_hessian":[1.661899E6,1.603683E6,5.8216E4,1.395474E6,2.08209E5,3.2378E4,2.5838E4,6.16824E5,7.7865E5,1.30102E5,7.8107E4,1.9298E4,1.308E4,1.1187E4,1.4651E4,2.69E2,6.16555E5,6.42114E5,1.36536E5,7.8089E4,5.2013E4,5.8591E4,1.9516E4,1.2877E4,6.421E3,6.562E3,6.518E3,4.805E3,6.382E3,1.2988E4,1.663E3],"tree_param":{"num_deleted":"0","num_feature":"4","num_nodes":"31","size_leaf_vector":"1"}},{"base_weights":[-2.0104686E-3,-1.6490225E-1,4.467303E0,-3.1272995E-1,8.304964E-1,3.4678092E0,8.047004E0,-4.3202242E-1,-1.8545538E-1,5.0819194E-1,1.3672386E0,2.6392684E0,4.5931597E0,1.0009447E1,2.6745045E0,2.0486069E-1,-1.9434717E-2,-9.851152E-3,-1.3257989E-3,7.581389E-1,2.260576E-2,2.923013E-1,5.9904084E-2,9.4304636E-2,2.4877654E-1,1.6924012E-1,2.2356662E-1,4.0687007E-1,6.332529E-1,-2.7536121E-3,2.1120001E-1],"categories":[],"categories_nodes":[],"categories_segments":[],"categories_sizes":[],"default_left":[0,0,0,0,0,0,0,0,0,0,0,0,0,0,0,0,0,0,0,0,0,0,0,0,0,0,0,0,0,0,0],"id":45,"left_children":[1,3,5,7,9,11,13,15,17,19,21,23,25,27,29,-1,-1,-1,-1,-1,-1,-1,-1,-1,-1,-1,-1,-1,-1,-1,-1],"loss_changes":[1.2102635E6,2.3601866E5,2.09132E5,2.1203672E4,3.5879062E4,4.2599438E4,1.3449431E5,1.0933844E4,3.6904219E3,4.6076875E3,1.0580094E4,4.072717E4,6.395875E3,3.497375E4,1.9185168E4,0E0,0E0,0E0,0E0,0E0,0E0,0E0,0E0,0E0,0E0,0E0,0E0,0E0,0E0,0E0,0E0],"parents":[2147483647,0,0,1,1,2,2,3,3,4,4,5,5,6,6,7,7,8,8,9,9,10,10,11,11,12,12,13,13,14,14],"right_children":[2,4,6,8,10,12,14,16,18,20,22,24,26,28,30,-1,-1,-1,-1,-1,-1,-1,-1,-1,-1,-1,-1,-1,-1,-1,-1],"split_conditions":[1.8741558E-1,2.5597E1,3.0464207E1,7.7445456E-3,2.6059948E1,2.77156E1,1E0,2.5E1,4.509573E-2,3.0955815E-4,3.0955815E-4,4.6168155E2,2.8297348E1,7.7039504E-1,4.6168155E2,2.0486069E-1,-1.9434717E-2,-9.851152E-3,-1.3257989E-3,7.581389E-1,2.260576E-2,2.923013E-1,5.9904084E-2,9.4304636E-2,2.4877654E-1,1.6924012E-1,2.2356662E-1,4.0687007E-1,6.332529E-1,-2.7536121E-3,2.1120001E-1],"split_indices":[1,0,0,1,0,0,3,0,1,1,1,1,0,1,1,0,0,0,0,0,0,0,0,0,0,0,0,0,0,0,0],"split_type":[0,0,0,0,0,0,0,0,0,0,0,0,0,0,0,0,0,0,0,0,0,0,0,0,0,0,0,0,0,0,0],"sum_hessian":[1.662415E6,1.603957E6,5.8458E4,1.396554E6,2.07403E5,4.57E4,1.2758E4,7.20881E5,6.75673E5,1.29589E5,7.7814E4,2.6323E4,1.9377E4,9.344E3,3.414E3,4.33E2,7.20448E5,5.51535E5,1.24138E5,1.6E1,1.29573E5,3.92E2,7.7422E4,2.2303E4,4.02E3,6.558E3,1.2819E4,7.684E3,1.66E3,1.464E3,1.95E3],"tree_param":{"num_deleted":"0","num_feature":"4","num_nodes":"31","size_leaf_vector":"1"}},{"base_weights":[-1.2731918E-3,-1.2778635E-1,5.268911E0,-2.707631E-1,1.1547567E0,4.0541244E0,7.7298636E0,-3.605144E-1,-4.9195033E-2,1.0595068E0,5.0246634E0,3.3569932E0,4.756092E0,9.570039E0,3.0065422E0,1.9104412E-1,-1.6191145E-2,-5.9054145E-3,1.27894E-2,3.4257416E-2,8.015205E-2,2.368383E-1,1.3404109E-1,5.831558E-1,1.4886093E-1,2.1848953E-1,1.132821E-1,3.895662E-1,6.0419303E-1,3.620616E-2,2.1856266E-1],"categories":[],"categories_nodes":[],"categories_segments":[],"categories_sizes":[],"default_left":[0,0,0,0,0,0,0,0,0,0,0,0,0,0,0,0,0,0,0,0,0,0,0,0,0,0,0,0,0,0,0],"id":46,"left_children":[1,3,5,7,9,11,13,15,17,19,21,23,25,27,29,-1,-1,-1,-1,-1,-1,-1,-1,-1,-1,-1,-1,-1,-1,-1,-1],"loss_changes":[1.1083686E6,2.9768588E5,1.16470625E5,2.9044727E4,6.0012266E4,1.2753E4,1.119035E5,9.2710625E3,1.172446E4,3.416667E4,2.1765078E3,3.0997344E3,3.8775E3,3.102E4,1.4955902E4,0E0,0E0,0E0,0E0,0E0,0E0,0E0,0E0,0E0,0E0,0E0,0E0,0E0,0E0,0E0,0E0],"parents":[2147483647,0,0,1,1,2,2,3,3,4,4,5,5,6,6,7,7,8,8,9,9,10,10,11,11,12,12,13,13,14,14],"right_children":[2,4,6,8,10,12,14,16,18,20,22,24,26,28,30,-1,-1,-1,-1,-1,-1,-1,-1,-1,-1,-1,-1,-1,-1,-1,-1],"split_conditions":[2.732245E1,7.771795E-2,3.0464207E1,2.5296396E1,4.6168155E2,2.8297348E1,1E0,2.5E1,2.5555798E1,2.6396395E1,2.5E1,3.0955815E-4,5.7589334E-1,7.7039504E-1,4.6168155E2,1.9104412E-1,-1.6191145E-2,-5.9054145E-3,1.27894E-2,3.4257416E-2,8.015205E-2,2.368383E-1,1.3404109E-1,5.831558E-1,1.4886093E-1,2.1848953E-1,1.132821E-1,3.895662E-1,6.0419303E-1,3.620616E-2,2.1856266E-1],"split_indices":[0,1,0,0,1,0,3,0,0,0,0,1,1,1,1,0,0,0,0,0,0,0,0,0,0,0,0,0,0,0,0],"split_type":[0,0,0,0,0,0,0,0,0,0,0,0,0,0,0,0,0,0,0,0,0,0,0,0,0,0,0,0,0,0,0],"sum_hessian":[1.662349E6,1.62338E6,3.8969E4,1.460559E6,1.62821E5,2.6092E4,1.2877E4,1.039489E6,4.2107E5,1.58911E5,3.91E3,1.3094E4,1.2998E4,9.266E3,3.611E3,4.3E2,1.039059E6,3.3756E5,8.351E4,1.13644E5,4.5267E4,3.438E3,4.72E2,3.2E1,1.3062E4,1.2253E4,7.45E2,7.63E3,1.636E3,1.669E3,1.942E3],"tree_param":{"num_deleted":"0","num_feature":"4","num_nodes":"31","size_leaf_vector":"1"}},{"base_weights":[-1.2385526E-3,-1.2294822E-1,5.0490947E0,-2.566942E-1,1.1316311E0,3.85831E0,7.4169893E0,-2.990206E-1,2.0692395E-1,1.0344156E0,4.954297E0,3.1687763E0,4.559143E0,9.178223E0,2.9266255E0,-1.8578226E-2,-8.929923E-3,9.37465E-3,-5.4394656E-1,3.5992336E-2,8.438492E-2,2.4239206E-1,7.175425E-2,-3.703408E-1,1.419773E-1,1.8188436E-1,2.2858842E-1,3.7444115E-1,5.758326E-1,3.6036287E-2,2.1628413E-1],"categories":[],"categories_nodes":[],"categories_segments":[],"categories_sizes":[],"default_left":[0,0,0,0,0,0,0,0,0,0,0,0,0,0,0,0,0,0,0,0,0,0,0,0,0,0,0,0,0,0,0],"id":47,"left_children":[1,3,5,7,9,11,13,15,17,19,21,23,25,27,29,-1,-1,-1,-1,-1,-1,-1,-1,-1,-1,-1,-1,-1,-1,-1,-1],"loss_changes":[1.02128706E6,2.7223247E5,1.10216875E5,2.877004E4,5.807836E4,1.2558656E4,1.0343325E5,1.5561102E4,4.447918E3,2.9790516E4,6.111703E3,1.4354531E3,3.4885312E3,2.7666438E4,1.4963305E4,0E0,0E0,0E0,0E0,0E0,0E0,0E0,0E0,0E0,0E0,0E0,0E0,0E0,0E0,0E0,0E0],"parents":[2147483647,0,0,1,1,2,2,3,3,4,4,5,5,6,6,7,7,8,8,9,9,10,10,11,11,12,12,13,13,14,14],"right_children":[2,4,6,8,10,12,14,16,18,20,22,24,26,28,30,-1,-1,-1,-1,-1,-1,-1,-1,-1,-1,-1,-1,-1,-1,-1,-1],"split_conditions":[2.732245E1,7.9902045E-2,3.0464207E1,2.5498692E1,4.6168155E2,2.8297348E1,1E0,3.0955815E-4,2.6465704E1,2.6543016E1,2.5E1,0E0,4.3124098E-1,7.7039504E-1,4.6168155E2,-1.8578226E-2,-8.929923E-3,9.37465E-3,-5.4394656E-1,3.5992336E-2,8.438492E-2,2.4239206E-1,7.175425E-2,-3.703408E-1,1.419773E-1,1.8188436E-1,2.2858842E-1,3.7444115E-1,5.758326E-1,3.6036287E-2,2.1628413E-1],"split_indices":[0,1,0,0,1,0,3,1,0,0,0,1,1,1,1,0,0,0,0,0,0,0,0,0,0,0,0,0,0,0,0],"split_type":[0,0,0,0,0,0,0,0,0,0,0,0,0,0,0,0,0,0,0,0,0,0,0,0,0,0,0,0,0,0,0],"sum_hessian":[1.661507E6,1.622409E6,3.9098E4,1.466113E6,1.56296E5,2.6017E4,1.3081E4,1.343461E6,1.22652E5,1.52421E5,3.875E3,1.3117E4,1.29E4,9.395E3,3.686E3,6.16596E5,7.26865E5,1.22624E5,2.8E1,1.20239E5,3.2182E4,3.396E3,4.79E2,1E1,1.3107E4,6.887E3,6.013E3,7.738E3,1.657E3,1.75E3,1.936E3],"tree_param":{"num_deleted":"0","num_feature":"4","num_nodes":"31","size_leaf_vector":"1"}},{"base_weights":[-2.7343005E-4,-1.5128756E-1,3.716264E0,-2.730355E-1,6.944426E-1,2.9086192E0,7.0277157E0,-3.9676917E-1,-1.7514008E-1,4.521699E-1,1.1329577E0,2.2590883E0,4.0126443E0,2.2266963E0,8.789347E0,-3.7537023E-1,-1.7647043E-2,-1.0125083E-2,-3.8492717E-3,8.72755E-1,2.0113936E-2,4.9517583E-2,3.129008E-1,